-1 691 691 691 691 691 691 691 691 691 691 691 691 691 691 691 691 -3115 -3115 -3115 -3115 -3115 -3115 -3115 -3115 -3115 -3115 2131 2131 2131 2131 2131 2131 -3067 884 1002 
-1 691 691 691 691 691 691 691 691 691 691 691 691 691 691 691 691 691 -3115 -3115 -3115 -3115 -3115 -3115 -3115 -3115 -3115 -3115 -3115 -3115 -3115 -3115 2131 2131 2131 2131 -3067 -3067 -3067 -3067 -3067 -3067 884 884 884 884 1002 1002 
-1 691 691 691 691 691 691 691 691 691 691 691 691 -3115 -3115 -3115 -3115 -3115 -3115 -3115 -3115 -3115 -3115 -3115 -3115 -3115 2131 2131 2131 2131 2131 -3067 -3067 -3067 -3067 -3401 
-1 691 691 691 691 691 691 691 691 691 691 691 -3115 -3115 -3115 -3115 -3115 -3115 -3115 -3115 -3115 2131 2131 2131 2131 2131 2131 -3067 -3067 -3067 -3067 -3067 -3067 884 884 1002 
-1 691 691 691 691 691 691 691 -3115 -3115 -3115 -3115 -3115 -3115 -3115 -3115 -3115 -3115 -3115 -3115 -3115 -3115 -3115 2131 2131 -3067 -3067 -3067 -3067 884 884 1002 
-1 691 691 691 691 691 691 691 691 691 691 691 691 691 691 691 691 691 -3115 -3115 -3115 -3115 -3115 -3115 -3115 -3115 -3115 -3115 2131 2131 2131 2131 -3067 884 884 1002 
-1 691 691 691 691 691 691 691 691 691 691 691 691 691 -3115 -3115 -3115 2131 2131 2131 2131 2131 2131 2131 2131 2131 2131 2131 2131 2131 -3067 -3067 -3067 884 884 884 
-1 691 691 691 691 691 691 691 691 691 691 691 691 691 691 691 -3115 -3115 -3115 -3115 -3115 -3115 -3115 -3115 -3115 -3115 2131 2131 2131 2131 2131 2131 2131 2131 2131 -3067 -3067 -3067 884 1002 
-1 691 691 691 691 691 691 691 691 691 691 691 691 691 691 691 691 691 -3115 -3115 -3115 -3115 -3115 -3115 -3115 -3115 -3115 -3115 -3115 -3115 2131 2131 2131 2131 2131 2131 -3067 -3067 -3067 884 1002 
-1 691 691 691 691 691 691 691 691 691 691 691 691 691 691 691 691 -3115 -3115 -3115 -3115 -3115 -3115 -3115 -3115 -3115 -3115 -3115 2131 2131 2131 2131 2131 2131 -3067 884 1002 1002 
-1 691 691 691 691 691 691 691 691 691 691 691 691 691 691 691 691 691 691 691 691 -3115 -3115 -3115 -3115 -3115 -3115 -3115 -3115 2131 2131 2131 -3067 -3067 -3067 -3067 884 884 1002 
-1 691 691 691 691 691 691 691 691 691 691 691 691 691 691 691 691 -3115 -3115 -3115 -3115 -3115 -3115 -3115 -3115 -3115 -3115 -3115 2131 2131 2131 2131 -3067 -3067 -3067 -3067 884 
-1 691 691 691 691 691 691 691 691 691 691 691 691 691 691 691 691 -3115 -3115 -3115 -3115 -3115 -3115 -3115 2131 2131 2131 2131 2131 2131 2131 -3067 -3067 -3067 -3067 884 884 1002 1002 
-1 691 691 691 691 691 691 691 691 691 691 691 691 -3115 -3115 -3115 -3115 -3115 -3115 -3115 -3115 -3115 -3115 2131 2131 2131 2131 2131 2131 2131 2131 2131 2131 -3067 -3067 884 884 1002 1002 
-1 691 691 691 691 691 691 691 691 691 691 691 691 691 691 691 691 691 691 691 -3115 -3115 -3115 -3115 -3115 -3115 -3115 -3115 -3115 -3115 2131 2131 2131 2131 2131 2131 -3067 -3067 -3067 1002 1002 
-1 691 691 691 691 691 691 691 691 691 691 691 691 691 691 691 691 691 691 -3115 -3115 -3115 -3115 -3115 -3115 -3115 -3115 -3115 -3115 -3115 -3115 2131 2131 2131 2131 2131 2131 2131 2131 2131 2131 2131 -3067 -3067 -3067 -3067 -3067 -3067 -3067 -3067 
-1 691 691 691 691 691 691 691 691 691 -3115 -3115 -3115 -3115 -3115 -3115 -3115 -3115 -3115 -3115 -3115 -3115 2131 2131 2131 2131 2131 2131 2131 -3067 -3067 -3067 -3067 -3067 884 884 
-1 691 691 691 691 691 691 691 691 691 691 691 691 691 691 691 691 691 691 691 -3115 -3115 -3115 -3115 -3115 -3115 -3115 -3115 -3115 -3115 2131 2131 2131 2131 2131 2131 -3067 -3067 -3067 884 884 
-1 691 691 691 691 691 691 691 691 691 691 691 -3115 -3115 -3115 -3115 -3115 -3115 -3115 -3115 2131 2131 2131 2131 2131 2131 -3067 -3067 -3067 -3067 -3067 884 884 
-1 691 691 691 691 691 691 691 691 691 691 691 691 691 691 691 -3115 -3115 -3115 -3115 -3115 -3115 -3115 2131 2131 2131 2131 -3067 -3067 -3067 -3067 884 
-1 691 691 691 691 691 691 691 691 691 691 691 691 691 -3115 -3115 -3115 -3115 -3115 -3115 -3115 -3115 2131 2131 2131 2131 2131 2131 -3067 -3067 -3067 -3067 -3067 -3067 884 
-1 691 691 691 691 691 691 691 691 691 -3115 -3115 -3115 -3115 -3115 -3115 -3115 -3115 -3115 -3115 -3115 -3115 -3115 2131 -3067 -3067 -3067 -3067 
-1 691 691 691 691 691 691 691 691 691 691 691 691 691 691 691 691 691 691 691 691 691 691 691 -3115 -3115 -3115 -3115 -3115 -3115 -3115 -3115 -3115 -3115 2131 2131 2131 2131 2131 -3067 -3067 -3067 -3067 
-1 691 691 691 691 691 691 691 691 691 691 691 691 691 691 691 691 691 691 -3115 -3115 -3115 -3115 -3115 -3115 -3115 2131 2131 2131 -3067 -3067 -3067 -3067 1002 1002 1002 
-1 691 691 691 691 691 691 691 691 691 691 691 691 691 -3115 -3115 -3115 -3115 -3115 -3115 -3115 -3115 -3115 -3115 2131 2131 2131 2131 -3067 -3067 -3067 -3067 -3067 -3067 -3067 884 -3401 
-1 691 691 691 691 691 691 691 691 691 691 691 -3115 -3115 -3115 -3115 -3115 -3115 -3115 -3115 -3115 -3115 2131 2131 2131 2131 2131 2131 2131 2131 2131 2131 -3067 -3067 -3067 -3067 -3067 -3067 884 1002 1002 
-1 691 691 691 691 691 691 691 691 691 691 691 691 691 691 691 691 691 691 691 691 -3115 -3115 -3115 -3115 -3115 -3115 2131 2131 2131 2131 2131 2131 2131 2131 2131 -3067 -3067 -3067 -3067 -3067 -3067 -3067 -3067 884 
-1 691 691 691 691 691 691 691 691 691 691 691 691 691 -3115 -3115 -3115 -3115 -3115 -3115 -3115 -3115 -3115 -3115 -3115 2131 2131 2131 2131 2131 2131 2131 2131 2131 2131 2131 2131 2131 -3067 -3067 -3067 884 1002 1002 
-1 691 691 691 691 691 691 691 691 691 691 691 691 691 691 -3115 -3115 -3115 -3115 -3115 -3115 -3115 -3115 -3115 2131 2131 2131 2131 2131 2131 2131 2131 2131 2131 2131 2131 -3067 -3067 -3067 -3067 -3067 -3067 884 884 884 1002 1002 
-1 691 691 691 691 691 691 691 691 691 691 691 691 691 -3115 -3115 -3115 -3115 -3115 -3115 -3115 -3115 -3115 -3115 -3115 -3115 -3115 -3115 2131 2131 2131 2131 2131 2131 2131 2131 -3067 -3067 -3067 -3067 -3067 884 1002 
-1 691 691 691 691 691 691 691 691 691 691 691 691 691 691 691 691 -3115 -3115 -3115 -3115 -3115 -3115 -3115 -3115 2131 2131 -3067 -3067 -3067 -3067 884 884 
-1 691 691 691 691 691 691 691 691 691 691 691 691 691 691 691 691 691 691 691 691 691 -3115 -3115 -3115 -3115 2131 2131 2131 2131 2131 2131 2131 2131 -3067 -3067 -3067 -3067 -3067 -3067 -3067 1002 1002 
-1 691 691 691 691 691 -3115 -3115 -3115 -3115 -3115 -3115 -3115 -3115 2131 2131 2131 2131 2131 -3067 -3067 -3067 -3067 884 884 
-1 691 691 691 691 691 691 691 691 691 691 691 691 691 691 691 -3115 -3115 -3115 -3115 -3115 2131 2131 2131 2131 2131 -3067 
-1 691 691 691 691 691 691 691 691 691 691 691 691 691 691 691 691 -3115 -3115 -3115 -3115 -3115 -3115 -3115 -3115 -3115 2131 2131 2131 2131 2131 -3067 -3067 -3067 -3067 -3067 -3067 -3067 -3067 -3067 884 1002 1002 
-1 691 691 691 691 691 691 691 691 691 691 691 691 691 691 691 691 691 691 691 -3115 -3115 -3115 -3115 -3115 -3115 -3115 -3115 -3115 2131 2131 2131 2131 2131 2131 -3067 -3067 -3067 884 1002 1002 
-1 691 691 691 691 691 691 691 691 -3115 -3115 -3115 -3115 -3115 -3115 -3115 -3115 -3115 2131 2131 2131 2131 2131 -3067 -3067 -3067 884 
-1 691 691 691 691 691 691 691 691 691 691 691 691 691 691 691 691 691 691 691 691 -3115 -3115 -3115 -3115 -3115 -3115 -3115 -3115 -3115 -3115 -3115 2131 2131 2131 2131 2131 2131 2131 -3067 -3067 -3067 
-1 691 691 691 691 691 691 691 691 691 -3115 -3115 -3115 -3115 -3115 -3115 2131 2131 2131 2131 2131 2131 -3067 -3067 -3067 884 
-1 691 691 691 691 691 691 691 691 691 691 691 691 691 691 691 691 691 691 691 -3115 -3115 -3115 -3115 -3115 -3115 -3115 -3115 -3115 -3115 -3115 -3115 2131 2131 2131 2131 2131 2131 2131 -3067 -3067 -3067 -3067 -3067 -3067 884 884 884 
-1 691 691 691 691 691 691 691 691 691 691 691 -3115 -3115 -3115 -3115 -3115 -3115 2131 2131 2131 2131 2131 2131 -3067 -3067 -3067 -3067 -3067 884 1002 1002 
-1 691 691 691 691 691 691 691 691 691 691 691 691 691 691 691 -3115 -3115 -3115 -3115 -3115 -3115 2131 2131 2131 2131 2131 2131 2131 -3067 -3067 -3067 -3067 -3067 -3067 884 884 
-1 691 691 691 691 691 691 691 691 691 691 691 691 691 691 691 691 691 691 691 -3115 -3115 -3115 -3115 -3115 -3115 -3115 -3115 -3115 -3115 -3115 -3115 2131 2131 2131 2131 2131 2131 2131 2131 -3067 -3067 884 1002 1002 
-1 691 691 691 691 691 691 691 691 691 691 691 691 691 691 691 691 691 691 -3115 -3115 -3115 -3115 -3115 -3115 -3115 -3115 -3115 -3115 -3115 -3115 -3115 2131 2131 2131 2131 2131 2131 2131 2131 2131 -3067 -3067 -3067 -3067 -3067 -3067 -3067 -3067 884 884 1002 
-1 691 691 691 691 691 691 691 691 691 691 691 691 691 691 691 691 -3115 -3115 -3115 -3115 -3115 -3115 -3115 -3115 2131 2131 2131 2131 2131 -3067 -3067 -3067 884 
-1 691 691 691 691 691 691 691 691 691 691 691 691 691 691 -3115 -3115 -3115 -3115 -3115 -3115 -3115 -3115 -3115 -3115 2131 2131 2131 2131 2131 2131 2131 -3067 -3067 -3067 -3067 -3067 884 
-1 691 691 691 691 691 691 691 691 691 691 691 691 691 691 691 691 691 -3115 -3115 -3115 -3115 -3115 -3115 -3115 -3115 -3115 -3115 -3115 -3115 2131 2131 2131 2131 2131 2131 2131 2131 2131 -3067 -3067 -3067 
-1 691 691 691 691 691 691 691 691 691 691 691 691 691 691 -3115 -3115 -3115 -3115 -3115 -3115 -3115 -3115 -3115 -3115 -3115 -3115 -3115 -3115 2131 2131 2131 2131 2131 2131 2131 2131 -3067 -3067 -3067 -3067 -3067 -3067 -3067 
-1 691 691 691 691 691 691 691 691 691 691 691 691 691 691 691 691 691 691 691 691 691 -3115 -3115 -3115 -3115 -3115 -3115 -3115 -3115 2131 2131 2131 2131 2131 2131 2131 -3067 -3067 -3067 -3067 -3067 -3067 -3067 1002 1002 
-1 691 691 691 691 691 691 691 691 691 691 691 691 691 691 691 691 691 691 691 -3115 -3115 -3115 -3115 -3115 -3115 -3115 -3115 -3115 -3115 -3115 -3115 -3115 -3115 -3115 2131 2131 2131 2131 -3067 -3067 -3067 -3067 1002 
-1 691 691 691 691 691 691 691 691 691 691 691 -3115 -3115 -3115 -3115 -3115 2131 2131 2131 2131 2131 2131 2131 2131 2131 2131 -3067 -3067 
-1 691 691 691 691 691 691 691 691 691 691 691 691 691 691 691 691 691 691 691 691 -3115 -3115 -3115 -3115 -3115 -3115 -3115 -3115 -3115 -3115 2131 2131 2131 2131 2131 2131 -3067 884 
-1 691 691 691 691 691 691 691 691 691 691 691 691 691 691 691 691 -3115 -3115 -3115 -3115 -3115 -3115 2131 2131 2131 2131 2131 2131 2131 2131 2131 2131 2131 2131 2131 2131 -3067 -3067 -3067 -3067 -3067 1002 
-1 691 691 691 691 691 691 691 691 691 691 691 691 691 691 691 691 691 691 -3115 -3115 -3115 -3115 -3115 -3115 -3115 -3115 -3115 -3115 2131 2131 2131 2131 2131 2131 2131 -3067 -3067 -3067 -3067 884 1002 
-1 691 691 691 691 691 691 691 691 691 691 691 691 691 691 691 -3115 -3115 -3115 -3115 -3115 -3115 -3115 -3115 -3115 -3115 -3115 -3115 -3115 2131 2131 2131 2131 2131 2131 -3067 
-1 691 691 691 691 691 691 691 691 691 691 691 691 -3115 -3115 -3115 -3115 -3115 -3115 -3115 -3115 -3115 2131 2131 2131 2131 2131 2131 2131 2131 2131 -3067 -3067 -3067 -3067 -3067 884 
-1 691 691 691 691 691 691 691 691 691 691 691 691 691 691 691 691 691 -3115 -3115 -3115 -3115 -3115 -3115 -3115 -3115 -3115 -3115 -3115 2131 2131 2131 2131 -3067 -3067 -3067 -3067 -3067 -3067 -3067 884 884 1002 
-1 691 691 691 691 691 691 691 691 691 691 691 691 691 691 691 691 691 691 691 691 691 691 -3115 -3115 -3115 -3115 -3115 -3115 -3115 -3115 -3115 -3115 -3115 2131 2131 2131 2131 2131 2131 -3067 -3067 -3067 -3067 -3067 -3067 -3067 1002 1002 1002 
-1 691 691 691 691 691 691 691 691 -3115 -3115 -3115 -3115 -3115 -3115 -3115 -3115 -3115 -3115 -3115 2131 2131 2131 2131 2131 2131 2131 2131 -3067 -3067 -3067 884 1002 
-1 691 691 691 691 691 691 691 691 691 691 691 691 -3115 -3115 -3115 -3115 -3115 -3115 -3115 -3115 -3115 -3115 2131 2131 2131 2131 -3067 -3067 -3067 -3067 -3067 -3067 -3067 884 1002 
-1 691 691 691 691 691 691 691 691 691 691 691 691 691 691 691 691 691 -3115 -3115 -3115 -3115 -3115 -3115 -3115 2131 2131 2131 2131 2131 2131 2131 2131 2131 2131 2131 2131 2131 2131 -3067 -3067 -3067 
-1 691 691 691 691 691 691 691 691 691 691 691 691 691 691 691 -3115 -3115 -3115 -3115 -3115 -3115 -3115 -3115 2131 2131 2131 2131 -3067 -3067 -3067 -3067 -3067 -3067 -3067 1002 -3401 
-1 691 691 691 691 691 691 691 691 691 691 691 691 691 691 691 691 691 -3115 -3115 -3115 -3115 -3115 -3115 -3115 -3115 -3115 -3115 2131 2131 2131 2131 2131 2131 2131 -3067 -3067 -3067 -3067 884 
-1 691 691 691 691 691 691 691 691 691 691 691 -3115 -3115 -3115 -3115 -3115 -3115 -3115 -3115 -3115 2131 2131 2131 2131 -3067 -3067 -3067 1002 1002 
-1 691 691 691 691 691 691 691 691 691 691 691 691 691 691 691 691 -3115 -3115 -3115 -3115 -3115 -3115 -3115 -3115 -3115 -3115 -3115 2131 2131 2131 2131 2131 -3067 -3067 -3067 -3067 -3067 884 884 884 1002 
-1 691 691 691 691 691 691 691 691 691 691 691 691 691 691 691 691 691 691 691 -3115 -3115 -3115 -3115 -3115 -3115 -3115 -3115 -3115 2131 2131 2131 2131 2131 2131 -3067 -3067 -3067 -3067 -3067 -3067 -3067 884 1002 
-1 691 691 691 691 691 691 691 691 691 691 691 691 691 691 691 -3115 -3115 -3115 -3115 -3115 -3115 -3115 -3115 -3115 2131 2131 2131 -3067 -3067 -3067 -3067 884 1002 
-1 691 691 691 691 691 691 691 691 691 691 691 691 691 -3115 -3115 -3115 -3115 -3115 -3115 -3115 -3115 -3115 -3115 2131 2131 2131 2131 -3067 -3067 -3067 -3067 -3067 -3067 884 
-1 691 691 691 691 691 691 691 691 691 691 -3115 -3115 -3115 -3115 -3115 -3115 -3115 2131 2131 2131 2131 2131 2131 2131 2131 2131 2131 -3067 -3067 -3067 -3067 -3067 -3067 884 884 884 1002 
-1 691 691 691 691 691 691 691 691 691 691 691 691 691 691 691 -3115 -3115 -3115 -3115 -3115 2131 2131 2131 2131 2131 2131 2131 2131 2131 2131 -3067 -3067 -3067 -3067 -3067 -3067 -3067 884 884 1002 
-1 691 691 691 691 691 691 691 691 691 691 691 691 691 691 691 -3115 -3115 -3115 -3115 -3115 -3115 -3115 2131 2131 2131 2131 2131 -3067 -3067 -3067 -3067 -3067 -3067 884 884 884 1002 
-1 691 691 691 691 691 691 691 691 691 691 691 691 -3115 -3115 -3115 -3115 -3115 -3115 -3115 -3115 -3115 2131 2131 2131 2131 2131 2131 2131 2131 2131 2131 -3067 -3067 -3067 884 -3401 
-1 691 691 691 691 691 691 691 691 691 691 691 691 691 691 691 691 691 691 691 691 -3115 -3115 -3115 -3115 -3115 -3115 2131 2131 2131 2131 2131 2131 -3067 1002 1002 
-1 691 691 691 691 691 691 691 691 691 691 691 691 691 691 691 691 691 -3115 -3115 -3115 -3115 -3115 -3115 -3115 -3115 -3115 -3115 -3115 2131 2131 2131 2131 2131 2131 2131 2131 2131 -3067 -3067 -3067 -3067 -3067 -3067 -3067 1002 1002 
-1 691 691 691 691 691 691 691 691 691 691 691 691 691 -3115 -3115 -3115 -3115 -3115 2131 2131 2131 2131 2131 2131 2131 2131 -3067 -3067 -3067 1002 1002 
-1 691 691 691 691 691 691 691 691 691 691 -3115 -3115 -3115 -3115 -3115 -3115 -3115 -3115 -3115 2131 2131 2131 2131 2131 2131 2131 2131 2131 2131 2131 2131 2131 2131 -3067 -3067 -3067 884 1002 
-1 691 691 691 691 691 691 691 691 691 691 691 691 691 691 -3115 -3115 -3115 -3115 -3115 -3115 2131 2131 2131 2131 2131 2131 2131 2131 -3067 -3067 -3067 884 884 
-1 691 691 691 691 691 691 691 691 691 691 691 691 691 691 691 691 691 691 691 691 691 -3115 -3115 -3115 -3115 -3115 -3115 -3115 -3115 -3115 -3115 -3115 2131 2131 2131 2131 2131 -3067 -3067 -3067 884 884 884 1002 
-1 691 691 691 691 691 691 691 691 691 691 691 691 691 691 691 -3115 -3115 -3115 -3115 -3115 -3115 2131 2131 2131 2131 2131 2131 2131 2131 2131 2131 2131 -3067 -3067 -3067 -3067 1002 -3401 
-1 691 691 691 691 691 691 691 691 691 691 691 691 691 691 691 691 691 691 691 691 691 691 -3115 -3115 -3115 -3115 -3115 -3115 -3115 -3115 -3115 -3115 -3115 2131 2131 2131 2131 2131 2131 2131 2131 2131 2131 -3067 -3067 -3067 -3067 884 
-1 691 691 691 691 691 691 691 691 691 691 691 691 691 691 691 691 691 691 691 -3115 -3115 -3115 -3115 -3115 -3115 -3115 -3115 -3115 -3115 -3115 -3115 -3115 -3115 2131 2131 2131 2131 2131 -3067 -3067 -3067 -3067 -3067 -3067 -3067 -3067 -3067 884 
-1 691 691 691 691 691 691 691 691 691 691 691 691 691 691 691 691 691 691 691 691 -3115 -3115 -3115 -3115 -3115 -3115 -3115 -3115 2131 2131 2131 2131 2131 2131 -3067 -3067 -3067 -3067 -3067 
-1 691 691 691 691 691 691 691 691 691 691 691 691 691 691 691 691 691 -3115 -3115 -3115 -3115 -3115 -3115 -3115 -3115 -3115 -3115 -3115 -3115 -3115 -3115 2131 2131 2131 2131 2131 2131 2131 -3067 -3067 -3067 -3067 884 884 884 884 
-1 691 691 691 691 691 691 691 691 691 691 691 691 -3115 -3115 -3115 -3115 -3115 -3115 -3115 -3115 -3115 -3115 -3115 -3115 -3115 -3115 -3115 -3115 2131 2131 2131 2131 2131 2131 2131 -3067 -3067 -3067 -3067 -3067 -3067 884 
-1 691 691 691 691 691 691 691 691 691 691 691 691 691 691 691 691 691 691 691 691 691 -3115 -3115 -3115 -3115 -3115 -3115 -3115 -3115 -3115 2131 2131 2131 2131 2131 2131 2131 -3067 -3067 -3067 -3067 -3067 -3067 884 884 884 1002 
-1 691 691 691 691 691 691 691 691 691 691 691 691 691 -3115 -3115 -3115 -3115 -3115 -3115 -3115 -3115 -3115 -3115 -3115 2131 2131 2131 2131 2131 2131 2131 2131 -3067 -3067 -3067 -3067 -3067 -3067 -3067 884 1002 
-1 691 691 691 691 691 691 691 691 691 691 691 691 691 691 -3115 -3115 -3115 -3115 -3115 -3115 -3115 2131 2131 2131 2131 2131 -3067 
-1 691 691 691 691 691 691 691 691 691 691 691 691 691 691 691 -3115 -3115 -3115 -3115 -3115 -3115 -3115 2131 2131 2131 2131 2131 2131 2131 -3067 -3067 -3067 -3067 -3067 -3067 -3067 -3067 -3067 -3067 1002 1002 
-1 691 691 691 691 691 691 691 691 691 691 691 691 -3115 -3115 -3115 -3115 -3115 -3115 -3115 -3115 -3115 -3115 -3115 -3115 2131 2131 2131 2131 2131 2131 2131 2131 -3067 -3067 -3067 -3067 -3067 -3067 -3067 884 
-1 691 691 691 691 691 691 691 691 691 691 691 691 691 691 691 691 691 691 691 691 691 691 -3115 -3115 -3115 -3115 -3115 -3115 -3115 -3115 -3115 -3115 -3115 -3115 -3115 -3115 2131 2131 2131 2131 2131 -3067 -3067 -3067 -3067 -3067 -3067 -3067 884 
-1 691 691 691 691 691 691 691 691 691 691 691 691 691 691 691 691 691 691 -3115 -3115 -3115 -3115 -3115 -3115 -3115 -3115 -3115 2131 2131 2131 -3067 -3067 -3067 -3067 -3067 -3067 884 884 884 884 1002 1002 
-1 691 691 691 691 691 691 691 691 691 691 691 691 691 691 691 691 -3115 -3115 -3115 -3115 -3115 -3115 -3115 -3115 -3115 -3115 2131 2131 2131 2131 -3067 -3067 -3067 -3067 -3067 -3067 -3067 884 1002 
-1 691 691 691 691 691 691 691 691 691 691 691 691 691 691 691 -3115 -3115 -3115 -3115 -3115 -3115 -3115 -3115 -3115 -3115 -3115 -3115 2131 2131 2131 -3067 -3067 -3067 -3067 884 
-1 691 691 691 691 691 691 691 691 691 691 691 691 691 691 691 691 691 -3115 -3115 -3115 -3115 -3115 -3115 -3115 -3115 -3115 2131 2131 2131 2131 2131 2131 2131 2131 2131 2131 2131 2131 -3067 -3067 -3067 -3067 -3067 -3067 -3067 884 1002 
-1 691 691 691 691 691 691 691 691 691 691 691 691 691 691 691 691 691 691 691 691 691 691 691 -3115 -3115 -3115 -3115 -3115 -3115 -3115 -3115 2131 2131 2131 2131 2131 2131 2131 -3067 -3067 -3067 884 884 884 
-1 691 691 691 691 691 691 691 691 691 -3115 -3115 -3115 -3115 -3115 -3115 -3115 2131 2131 2131 2131 2131 2131 2131 2131 2131 2131 2131 -3067 -3067 -3067 -3067 884 1002 
-1 691 691 691 691 691 691 691 691 691 691 691 691 691 691 691 691 -3115 -3115 -3115 -3115 -3115 -3115 -3115 -3115 -3115 2131 2131 -3067 -3067 -3067 -3067 884 884 1002 1002 1002 
-1 691 691 691 691 691 691 691 691 691 691 691 691 691 691 691 691 -3115 -3115 -3115 -3115 -3115 -3115 2131 2131 2131 2131 -3067 -3067 884 884 1002 1002 1002 
-1 691 691 691 691 691 691 691 691 691 691 691 691 691 691 691 -3115 -3115 -3115 -3115 -3115 -3115 -3115 -3115 2131 2131 2131 2131 2131 2131 2131 -3067 -3067 884 884 1002 
-1 691 691 691 691 691 691 691 691 691 691 691 691 691 691 691 691 691 691 -3115 -3115 -3115 -3115 -3115 -3115 -3115 -3115 -3115 -3115 -3115 -3115 -3115 -3115 2131 2131 2131 2131 2131 2131 2131 2131 -3067 -3067 -3067 -3067 884 1002 
-1 691 691 691 691 691 691 691 691 691 691 691 691 691 691 691 691 691 691 691 691 -3115 -3115 -3115 -3115 2131 2131 2131 2131 2131 2131 2131 2131 2131 -3067 -3067 -3067 -3067 
-1 691 691 691 691 691 691 691 691 691 691 691 691 691 691 691 691 691 691 -3115 -3115 -3115 -3115 -3115 -3115 -3115 -3115 -3115 -3115 -3115 -3115 -3115 -3115 2131 2131 2131 2131 2131 2131 2131 2131 2131 2131 2131 2131 2131 -3067 -3067 884 1002 1002 
-1 691 691 691 691 691 691 691 691 691 691 691 691 691 691 691 -3115 -3115 -3115 -3115 -3115 -3115 -3115 -3115 -3115 -3115 -3115 -3115 -3115 2131 2131 2131 2131 -3067 -3067 -3067 -3067 884 
-1 691 691 691 691 691 691 691 691 691 691 691 691 691 691 691 691 691 691 691 691 -3115 -3115 -3115 -3115 -3115 -3115 -3115 -3115 -3115 -3115 -3115 -3115 2131 2131 -3067 -3067 -3067 -3067 -3067 -3067 1002 
-1 691 691 691 691 691 691 691 691 691 691 691 691 691 691 -3115 -3115 -3115 -3115 -3115 -3115 -3115 -3115 2131 2131 2131 2131 2131 2131 2131 2131 2131 -3067 -3067 -3067 -3067 884 884 
-1 691 691 691 691 691 691 691 691 691 691 -3115 -3115 -3115 -3115 -3115 -3115 -3115 -3115 2131 2131 2131 2131 2131 2131 2131 -3067 -3067 884 1002 
-1 691 691 691 691 691 691 691 691 691 691 691 691 691 691 691 691 -3115 -3115 -3115 -3115 -3115 -3115 2131 2131 2131 2131 2131 2131 2131 2131 2131 -3067 -3067 -3067 -3067 -3067 884 884 
-1 691 691 691 691 691 691 691 691 691 691 691 691 691 691 691 691 691 691 691 -3115 -3115 -3115 -3115 -3115 -3115 2131 2131 2131 2131 2131 2131 2131 2131 -3067 -3067 884 
-1 691 691 691 691 691 691 691 691 691 691 691 -3115 -3115 -3115 -3115 -3115 -3115 -3115 -3115 2131 2131 2131 2131 2131 -3067 -3067 -3067 -3067 -3067 -3067 -3067 -3067 -3067 -3067 884 
-1 691 691 691 691 691 691 691 691 691 691 691 691 691 691 691 691 691 691 -3115 -3115 -3115 -3115 -3115 -3115 -3115 -3115 -3115 -3115 -3115 -3115 -3115 2131 2131 2131 2131 2131 2131 2131 2131 2131 2131 2131 2131 2131 2131 -3067 -3067 884 
-1 691 691 691 691 691 691 691 691 691 691 691 691 691 691 691 691 691 691 -3115 -3115 -3115 -3115 -3115 -3115 2131 2131 2131 2131 2131 2131 2131 -3067 -3067 -3067 -3067 -3067 -3067 -3067 884 
-1 691 691 691 691 691 691 691 691 691 691 691 691 691 691 691 691 691 691 691 691 691 691 -3115 -3115 -3115 -3115 -3115 -3115 -3115 -3115 -3115 2131 2131 2131 2131 2131 2131 2131 2131 2131 -3067 -3067 -3067 -3067 884 1002 
-1 691 691 691 691 691 691 691 691 691 691 691 691 691 691 691 -3115 -3115 -3115 -3115 -3115 -3115 -3115 -3115 -3115 -3115 -3115 2131 2131 2131 2131 2131 2131 2131 2131 -3067 -3067 -3067 -3067 1002 
-1 691 691 691 691 691 691 691 691 691 691 691 691 691 691 691 691 691 -3115 -3115 -3115 -3115 -3115 -3115 -3115 -3115 -3115 -3115 -3115 -3115 2131 2131 2131 2131 2131 2131 -3067 -3067 -3067 -3067 -3067 -3067 -3067 -3067 
-1 691 691 691 691 691 691 691 691 691 691 691 691 691 691 691 691 691 -3115 -3115 -3115 -3115 -3115 -3115 -3115 -3115 -3115 -3115 2131 2131 2131 2131 2131 2131 -3067 -3067 -3067 -3067 -3067 884 884 884 1002 1002 
-1 691 691 691 691 691 691 691 691 691 691 691 -3115 -3115 -3115 -3115 -3115 -3115 -3115 -3115 -3115 -3115 -3115 -3115 -3115 2131 2131 2131 2131 2131 -3067 -3067 -3067 -3067 884 884 884 
-1 691 691 691 691 691 691 691 691 691 691 691 691 691 691 -3115 -3115 -3115 -3115 -3115 -3115 -3115 -3115 -3115 -3115 2131 2131 2131 2131 2131 2131 2131 2131 -3067 -3067 -3067 -3067 -3067 -3067 884 
-1 691 691 691 691 691 691 691 691 691 691 -3115 -3115 -3115 -3115 -3115 -3115 -3115 -3115 -3115 -3115 -3115 2131 2131 2131 2131 2131 2131 2131 2131 -3067 -3067 -3067 -3067 1002 
-1 691 691 691 691 691 691 691 691 691 691 691 691 691 691 691 691 691 691 691 691 691 691 691 -3115 -3115 -3115 -3115 -3115 -3115 -3115 -3115 -3115 -3115 -3115 -3115 -3115 -3115 2131 2131 2131 2131 2131 2131 2131 2131 2131 2131 2131 -3067 -3067 -3067 -3067 -3067 -3067 -3067 -3067 -3067 -3067 884 884 -2909 1002 1002 
-1 691 691 691 691 691 691 691 691 691 691 691 691 -3115 -3115 -3115 -3115 -3115 -3115 -3115 2131 2131 2131 2131 2131 2131 -3067 -3067 -3067 884 884 1002 1002 
-1 691 691 691 691 691 691 691 691 691 691 691 691 691 691 691 691 691 691 691 691 691 -3115 -3115 -3115 -3115 -3115 -3115 -3115 -3115 -3115 -3115 -3115 -3115 2131 2131 2131 2131 2131 -3067 -3067 -3067 -3067 884 1002 
-1 691 691 691 691 691 691 691 691 691 691 691 691 691 691 -3115 -3115 -3115 -3115 -3115 -3115 -3115 -3115 -3115 -3115 -3115 2131 -3067 -3067 -3067 884 884 884 884 884 
-1 691 691 691 691 691 691 691 691 691 691 691 -3115 -3115 -3115 -3115 -3115 -3115 -3115 -3115 -3115 -3115 2131 2131 2131 2131 2131 2131 2131 2131 -3067 -3067 -3067 884 884 884 
-1 691 691 691 691 691 691 691 691 691 691 691 691 691 691 691 691 691 691 691 691 691 691 -3115 -3115 -3115 -3115 -3115 -3115 -3115 -3115 -3115 2131 2131 2131 2131 2131 2131 2131 2131 2131 2131 2131 2131 2131 -3067 -3067 -3067 -3067 1002 
-1 691 691 691 691 691 691 691 691 691 691 691 691 691 -3115 -3115 -3115 -3115 -3115 -3115 -3115 -3115 -3115 -3115 -3115 2131 2131 2131 2131 2131 2131 2131 -3067 -3067 -3067 -3067 884 884 1002 
-1 691 691 691 691 691 691 691 691 691 691 691 691 691 691 691 691 691 691 691 691 691 691 691 -3115 -3115 -3115 -3115 -3115 -3115 -3115 -3115 2131 2131 2131 2131 2131 2131 2131 2131 -3067 -3067 884 
-1 691 691 691 691 691 691 691 691 691 691 691 691 691 691 691 691 691 -3115 -3115 -3115 -3115 -3115 -3115 -3115 -3115 -3115 -3115 -3115 -3115 -3115 2131 2131 2131 2131 2131 2131 2131 2131 2131 -3067 -3067 -3067 884 1002 1002 
-1 691 691 691 691 691 691 691 691 691 691 691 691 691 691 691 691 691 691 691 -3115 -3115 -3115 -3115 -3115 -3115 -3115 -3115 -3115 2131 2131 2131 2131 2131 2131 2131 2131 2131 -3067 -3067 -3067 884 884 
-1 691 691 691 691 691 691 691 691 691 691 691 691 691 691 691 691 691 691 691 691 691 691 691 691 -3115 -3115 -3115 -3115 -3115 -3115 -3115 -3115 -3115 -3115 -3115 2131 2131 2131 2131 2131 -3067 -3067 -3067 1002 
-1 691 691 691 691 691 691 691 691 691 691 691 691 691 691 691 691 691 691 691 691 -3115 -3115 -3115 -3115 -3115 -3115 -3115 -3115 -3115 -3115 -3115 -3115 -3115 -3115 -3115 2131 2131 2131 2131 2131 -3067 -3067 -3067 -3067 -3067 -3067 -3067 -3067 -3067 884 
-1 691 691 691 691 691 691 691 691 691 691 691 691 691 -3115 -3115 -3115 -3115 -3115 -3115 -3115 -3115 -3115 -3115 -3115 -3115 2131 2131 2131 2131 2131 2131 2131 2131 -3067 -3067 -3067 -3067 -3067 -3067 -3067 -3067 1002 
-1 691 691 691 691 691 691 691 691 691 691 691 691 691 691 -3115 -3115 -3115 -3115 -3115 -3115 -3115 -3115 -3115 -3115 -3115 2131 2131 2131 2131 2131 2131 2131 2131 2131 -3067 -3067 -3067 -3067 -3067 884 
-1 691 691 691 691 691 691 691 691 691 691 691 691 691 691 691 691 691 -3115 -3115 -3115 -3115 -3115 -3115 -3115 -3115 -3115 -3115 -3115 2131 2131 2131 2131 2131 2131 2131 -3067 884 884 
-1 691 691 691 691 691 691 691 691 691 691 691 691 691 691 691 -3115 -3115 -3115 -3115 -3115 -3115 -3115 -3115 -3115 -3115 -3115 -3115 -3115 -3115 -3115 2131 2131 2131 2131 -3067 -3067 -3067 -3067 -3067 -3067 -3067 
-1 691 691 691 691 691 691 691 691 691 691 691 -3115 -3115 -3115 -3115 -3115 -3115 -3115 -3115 2131 -3067 -3067 -3067 -3067 -3067 -3067 
-1 691 691 691 691 691 691 691 691 691 691 691 691 691 691 691 -3115 -3115 -3115 -3115 -3115 -3115 -3115 -3115 -3115 -3115 -3115 2131 2131 2131 -3067 -3067 -3067 884 
-1 691 691 691 691 691 691 691 691 691 691 691 691 691 691 691 691 -3115 -3115 -3115 -3115 -3115 -3115 -3115 -3115 -3115 -3115 2131 2131 2131 2131 2131 2131 2131 2131 2131 -3067 
-1 691 691 691 691 691 691 691 691 691 691 691 691 691 691 691 691 -3115 -3115 -3115 -3115 -3115 -3115 -3115 -3115 2131 2131 -3067 -3067 -3067 -3067 -3067 -3067 884 884 1002 1002 1002 
-1 691 691 691 691 691 691 691 691 691 691 691 691 691 -3115 -3115 -3115 -3115 -3115 -3115 -3115 -3115 -3115 -3115 -3115 -3115 -3115 -3115 -3115 2131 2131 2131 2131 2131 2131 2131 -3067 -3067 -3067 -3067 884 884 1002 1002 
-1 691 691 691 691 691 691 691 691 691 691 691 691 691 691 691 691 691 691 691 691 691 -3115 -3115 -3115 -3115 -3115 -3115 -3115 -3115 -3115 -3115 -3115 -3115 -3115 2131 2131 2131 -3067 -3067 -3067 -3067 -3067 -3067 -3067 884 
-1 691 691 691 691 691 691 691 691 691 691 691 691 691 691 691 691 691 691 691 691 691 691 -3115 -3115 -3115 -3115 -3115 -3115 -3115 -3115 -3115 2131 2131 2131 2131 2131 2131 -3067 -3067 884 884 
-1 691 691 691 691 691 691 691 691 691 691 691 691 691 691 -3115 -3115 -3115 -3115 -3115 -3115 -3115 -3115 -3115 -3115 -3115 -3115 -3115 -3115 -3115 -3115 2131 2131 2131 2131 2131 2131 -3067 -3067 884 884 
-1 691 691 691 691 691 691 691 691 691 691 691 691 691 691 691 -3115 -3115 -3115 -3115 -3115 -3115 -3115 -3115 2131 2131 2131 2131 2131 2131 2131 2131 -3067 -3067 -3067 -3067 -3067 884 
-1 691 691 691 691 691 691 691 691 691 691 691 691 691 691 691 691 691 691 691 -3115 -3115 -3115 -3115 -3115 -3115 -3115 -3115 -3115 -3115 -3115 2131 2131 2131 2131 2131 2131 2131 2131 -3067 -3067 -3067 -3067 -3067 884 884 884 1002 
-1 691 691 691 691 691 691 691 691 691 691 691 691 691 691 -3115 -3115 -3115 -3115 -3115 -3115 -3115 -3115 -3115 -3115 2131 2131 2131 2131 2131 2131 2131 2131 2131 2131 -3067 -3067 -3067 -3067 -3067 884 884 884 884 884 1002 1002 1002 
-1 691 691 691 691 691 691 691 691 691 691 691 691 691 691 691 691 691 691 691 691 -3115 -3115 -3115 -3115 -3115 -3115 -3115 -3115 -3115 2131 2131 2131 2131 2131 2131 -3067 -3067 -3067 -3067 -3067 -3067 884 1002 
-1 691 691 691 691 691 691 691 691 691 691 691 691 691 691 691 691 691 691 691 691 -3115 -3115 -3115 -3115 -3115 -3115 -3115 -3115 -3115 -3115 -3115 -3115 -3115 -3115 2131 2131 2131 2131 2131 2131 -3067 -3067 -3067 -3067 884 1002 
-1 691 691 691 691 691 691 691 691 691 691 691 691 691 691 691 691 691 691 691 691 691 -3115 -3115 -3115 -3115 -3115 -3115 -3115 -3115 2131 2131 2131 2131 -3067 -3067 -3067 -3067 -3067 -3067 -3067 -3067 884 1002 1002 1002 
-1 691 691 691 691 691 691 691 691 691 691 691 691 691 -3115 -3115 -3115 -3115 -3115 -3115 -3115 -3115 2131 2131 2131 2131 2131 -3067 -3067 -3067 -3067 -3067 884 884 884 1002 
-1 691 691 691 691 691 691 691 691 691 691 691 691 691 691 691 691 -3115 -3115 -3115 -3115 -3115 -3115 -3115 -3115 -3115 -3115 -3115 -3115 -3115 2131 2131 2131 2131 2131 -3067 -3067 884 884 
-1 691 691 691 691 691 691 691 691 691 691 691 691 691 -3115 -3115 -3115 -3115 -3115 -3115 -3115 -3115 -3115 -3115 -3115 -3115 -3115 -3115 -3115 2131 2131 2131 2131 2131 2131 2131 2131 2131 2131 -3067 -3067 -3067 884 
-1 691 691 691 691 691 691 691 691 691 -3115 -3115 -3115 -3115 -3115 -3115 -3115 -3115 -3115 -3115 -3115 -3115 -3115 -3115 -3115 2131 2131 2131 2131 2131 2131 2131 2131 -3067 -3067 -3067 -3067 -3067 -3067 884 884 1002 1002 1002 
-1 691 691 691 691 691 691 691 691 691 691 691 691 691 -3115 -3115 -3115 -3115 -3115 -3115 -3115 -3115 -3115 2131 2131 2131 2131 2131 2131 2131 -3067 -3067 -3067 
-1 691 691 691 691 691 691 691 691 691 691 691 691 691 691 -3115 -3115 -3115 -3115 -3115 -3115 -3115 2131 2131 2131 2131 2131 2131 -3067 -3067 -3067 -3067 -3067 -3067 884 1002 
-1 691 691 691 691 691 691 691 691 691 -3115 -3115 -3115 -3115 -3115 -3115 -3115 -3115 -3115 -3115 2131 2131 2131 2131 2131 2131 2131 -3067 -3067 -3067 -3067 884 884 1002 
-1 691 691 691 691 691 691 691 691 691 -3115 -3115 -3115 -3115 -3115 -3115 -3115 -3115 -3115 -3115 2131 2131 2131 2131 2131 2131 2131 -3067 -3067 -3067 884 884 1002 1002 
-1 691 691 691 691 691 691 691 691 691 691 691 691 691 691 691 691 691 -3115 -3115 -3115 -3115 2131 2131 2131 2131 2131 2131 2131 -3067 -3067 -3067 1002 
-1 691 691 691 691 691 691 691 691 691 691 691 691 691 691 691 691 -3115 -3115 -3115 -3115 -3115 -3115 -3115 -3115 -3115 -3115 -3115 2131 2131 2131 2131 2131 2131 2131 2131 -3067 -3067 -3067 -3067 -3067 
-1 691 691 691 691 691 691 691 691 691 691 691 691 691 691 691 -3115 -3115 -3115 -3115 -3115 -3115 -3115 -3115 -3115 -3115 -3115 -3115 -3115 -3115 -3115 2131 2131 2131 2131 2131 2131 -3067 -3067 -3067 -3067 -3067 -3067 884 884 1002 
-1 691 691 691 691 691 691 691 691 691 691 691 691 691 691 691 691 691 691 691 691 691 -3115 -3115 -3115 -3115 -3115 -3115 -3115 -3115 -3115 2131 2131 2131 2131 2131 -3067 -3067 884 
-1 691 691 691 691 691 691 691 691 691 691 691 691 691 691 691 691 -3115 -3115 -3115 -3115 -3115 -3115 -3115 2131 2131 2131 2131 2131 2131 -3067 -3067 -3067 -3067 -3067 884 
-1 691 691 691 691 691 691 691 691 691 691 691 691 691 691 691 691 -3115 -3115 -3115 -3115 -3115 -3115 -3115 -3115 -3115 2131 2131 2131 2131 -3067 -3067 -3067 -3067 -3067 -3067 884 884 1002 
-1 691 691 691 691 691 691 691 691 691 691 691 691 691 691 691 691 691 691 691 691 -3115 -3115 -3115 -3115 -3115 -3115 -3115 -3115 -3115 -3115 -3115 -3115 2131 2131 2131 2131 2131 2131 2131 2131 2131 2131 -3067 -3067 -3067 -3067 -3067 -3067 1002 -3401 
-1 691 691 691 691 691 691 691 691 691 691 691 691 691 691 -3115 -3115 -3115 -3115 -3115 -3115 -3115 -3115 -3115 -3115 -3115 -3115 2131 2131 2131 2131 2131 2131 2131 2131 -3067 -3067 -3067 -3067 884 1002 
-1 691 691 691 691 691 691 691 691 691 691 691 691 691 -3115 -3115 -3115 -3115 -3115 -3115 -3115 -3115 -3115 -3115 -3115 -3115 -3115 -3115 2131 2131 2131 2131 2131 -3067 -3067 -3067 -3067 -3067 -3067 -3067 -3067 
-1 691 691 691 691 691 691 691 691 691 691 691 691 691 691 691 691 691 691 -3115 -3115 -3115 -3115 -3115 -3115 -3115 -3115 -3115 -3115 -3115 2131 2131 2131 2131 2131 2131 -3067 -3067 -3067 -3067 -3067 -3067 -3067 
-1 691 691 691 691 691 691 691 691 691 691 -3115 -3115 -3115 -3115 -3115 -3115 -3115 -3115 -3115 -3115 -3115 -3115 -3115 -3115 2131 2131 2131 2131 2131 2131 2131 2131 2131 2131 2131 2131 -3067 -3067 -3067 -3067 -3067 -3067 884 884 
-1 691 691 691 691 691 691 691 691 691 691 691 691 691 -3115 -3115 -3115 -3115 -3115 -3115 -3115 -3115 -3115 -3115 -3115 2131 2131 2131 2131 2131 2131 2131 2131 2131 2131 -3067 -3067 -3067 -3067 -3067 1002 
-1 691 691 691 691 691 691 691 691 691 691 691 691 691 691 691 691 691 -3115 -3115 -3115 -3115 -3115 -3115 -3115 -3115 -3115 2131 2131 2131 2131 2131 2131 2131 2131 2131 -3067 -3067 -3067 -3067 -3067 -3067 1002 
-1 691 691 691 691 691 691 691 691 691 691 691 691 691 691 691 691 691 691 691 -3115 -3115 -3115 -3115 -3115 -3115 -3115 -3115 -3115 -3115 2131 2131 2131 2131 2131 2131 -3067 -3067 -3067 884 884 1002 
-1 691 691 691 691 691 691 691 691 691 691 691 691 691 -3115 -3115 -3115 -3115 -3115 -3115 -3115 -3115 -3115 -3115 -3115 2131 2131 2131 2131 2131 -3067 -3067 884 884 
-1 691 691 691 691 691 691 691 691 691 691 691 691 691 691 691 691 -3115 -3115 -3115 -3115 -3115 -3115 -3115 -3115 -3115 -3115 2131 2131 2131 2131 2131 2131 2131 2131 -3067 -3067 884 884 884 1002 
-1 691 691 691 691 691 691 691 691 691 691 -3115 -3115 -3115 -3115 -3115 -3115 -3115 2131 2131 2131 2131 2131 -3067 -3067 -3067 -3067 884 1002 1002 1002 1002 
-1 691 691 691 691 691 691 691 691 691 691 691 691 691 691 691 -3115 -3115 -3115 -3115 -3115 -3115 -3115 -3115 -3115 -3115 -3115 -3115 2131 2131 2131 2131 2131 2131 2131 2131 2131 -3067 -3067 -3067 -3067 -3067 -3067 -3067 884 884 1002 1002 1002 
-1 691 691 691 691 691 691 691 691 691 691 691 691 691 691 691 691 691 691 691 -3115 -3115 -3115 -3115 -3115 -3115 -3115 -3115 2131 2131 2131 2131 2131 2131 2131 2131 -3067 -3067 -3067 -3067 884 884 
-1 691 691 691 691 691 691 691 691 691 691 691 691 691 691 691 691 691 -3115 -3115 -3115 -3115 -3115 -3115 -3115 -3115 -3115 -3115 -3115 -3115 -3115 2131 2131 2131 2131 2131 2131 2131 2131 2131 884 884 884 
-1 691 691 691 691 691 691 691 691 691 691 691 691 691 691 691 691 691 691 -3115 -3115 -3115 -3115 -3115 -3115 -3115 -3115 -3115 -3115 -3115 -3115 -3115 -3115 -3115 -3115 2131 2131 2131 2131 2131 2131 2131 2131 -3067 -3067 -3067 -3067 884 -3401 
-1 691 691 691 691 691 691 691 691 691 691 691 691 691 691 -3115 -3115 -3115 -3115 -3115 -3115 -3115 -3115 -3115 -3115 -3115 -3115 2131 2131 2131 2131 2131 2131 2131 2131 2131 -3067 -3067 -3067 -3067 
-1 691 691 691 691 691 691 691 691 691 691 691 691 691 691 691 691 -3115 -3115 -3115 -3115 -3115 -3115 -3115 -3115 -3115 -3115 -3115 -3115 -3115 2131 2131 2131 2131 2131 2131 2131 2131 2131 -3067 -3067 -3067 -3067 -3067 -3067 -3067 884 884 884 1002 1002 1002 
-1 691 691 691 691 691 691 691 691 691 691 691 691 691 691 -3115 -3115 -3115 -3115 -3115 2131 2131 2131 2131 2131 2131 2131 -3067 -3067 -3067 -3067 -3067 -3067 884 
-1 691 691 691 691 691 691 691 691 691 691 691 691 -3115 -3115 -3115 -3115 -3115 -3115 -3115 -3115 -3115 -3115 -3115 -3115 -3115 2131 2131 2131 2131 2131 2131 2131 2131 -3067 -3067 -3067 -3067 -3067 884 884 884 884 1002 
-1 691 691 691 691 691 691 691 691 691 691 691 691 691 691 691 691 691 691 -3115 -3115 -3115 -3115 -3115 -3115 -3115 -3115 -3115 -3115 2131 2131 2131 2131 2131 2131 2131 -3067 -3067 -3067 -3067 884 884 1002 
-1 691 691 691 691 691 691 691 691 691 691 691 691 691 691 691 691 691 691 691 -3115 -3115 -3115 -3115 -3115 2131 2131 2131 2131 2131 2131 -3067 -3067 -3067 -3067 -3067 -3067 884 884 -2909 1002 1002 
-1 691 691 691 691 691 691 691 691 691 691 691 691 691 691 691 691 691 -3115 -3115 -3115 -3115 -3115 -3115 -3115 -3115 2131 2131 2131 2131 2131 -3067 -3067 -3067 -3067 -3067 884 884 884 
-1 691 691 691 691 691 691 691 691 691 691 691 691 691 691 691 691 691 691 691 -3115 -3115 -3115 -3115 -3115 2131 2131 2131 2131 2131 2131 2131 -3067 -3067 -3067 -3067 -3067 -3067 
-1 691 691 691 691 691 691 691 691 691 691 691 691 -3115 -3115 -3115 -3115 -3115 -3115 -3115 -3115 2131 2131 2131 -3067 -3067 -3067 -3067 -3067 -3067 -3067 884 884 884 884 1002 1002 
-1 691 691 691 691 691 691 691 691 691 691 691 691 691 691 691 691 691 691 691 691 -3115 -3115 -3115 -3115 -3115 -3115 2131 2131 2131 2131 2131 2131 2131 2131 2131 2131 2131 -3067 -3067 884 884 1002 
-1 691 691 691 691 691 691 691 691 691 691 691 691 691 691 691 691 691 691 691 691 691 691 691 691 -3115 -3115 -3115 -3115 -3115 -3115 -3115 -3115 -3115 2131 2131 2131 2131 2131 2131 -3067 -3067 -3067 -3067 -3067 -3067 -3067 -3067 884 
-1 691 691 691 691 691 691 691 691 691 691 691 691 691 691 691 691 691 691 691 691 691 691 691 691 -3115 -3115 -3115 -3115 -3115 -3115 -3115 -3115 -3115 -3115 2131 2131 2131 2131 2131 2131 -3067 -3067 -3067 -3067 -3067 -3067 -3067 -3067 884 
-1 691 691 691 691 691 691 691 691 691 691 691 691 691 691 691 691 -3115 -3115 -3115 -3115 -3115 -3115 -3115 -3115 -3115 -3115 -3115 2131 2131 2131 2131 2131 2131 2131 2131 2131 -3067 -3067 -3067 -3067 -3067 -3067 884 884 
-1 691 691 691 691 691 691 691 691 691 691 691 691 691 -3115 -3115 -3115 -3115 -3115 -3115 -3115 -3115 -3115 -3115 -3115 -3115 -3115 2131 2131 2131 2131 2131 2131 2131 2131 -3067 -3067 -3067 -3067 -3067 -3067 884 1002 
-1 691 691 691 691 691 691 691 691 691 691 691 691 691 691 691 691 691 691 -3115 -3115 -3115 -3115 -3115 2131 2131 2131 2131 2131 2131 -3067 -3067 -3067 -3067 -3067 -3067 1002 1002 
-1 691 691 691 691 691 691 691 691 691 691 691 691 691 691 691 -3115 -3115 -3115 -3115 -3115 -3115 -3115 -3115 -3115 -3115 2131 2131 2131 2131 2131 2131 2131 2131 -3067 -3067 884 884 1002 
-1 691 691 691 691 691 691 691 691 691 691 691 691 691 691 691 -3115 -3115 -3115 -3115 2131 2131 2131 2131 2131 -3067 -3067 -3067 -3067 -3067 -3067 884 884 884 1002 
-1 691 691 691 691 691 691 691 691 691 691 691 691 691 691 691 691 691 691 691 691 691 691 691 691 -3115 -3115 -3115 -3115 -3115 -3115 -3115 -3115 -3115 -3115 -3115 2131 2131 2131 2131 2131 -3067 -3067 -3067 -3067 -3067 -3067 884 884 884 1002 1002 
-1 691 691 691 691 691 691 691 691 691 691 -3115 -3115 -3115 -3115 -3115 -3115 -3115 -3115 -3115 -3115 -3115 -3115 -3115 2131 2131 2131 2131 2131 2131 2131 2131 2131 2131 2131 -3067 -3067 -3067 -3067 -3067 -3067 -3067 -3067 884 884 1002 
-1 691 691 691 691 691 691 691 691 691 691 691 691 691 -3115 -3115 -3115 -3115 -3115 -3115 -3115 -3115 2131 2131 2131 2131 2131 -3067 -3067 -3067 -3067 -3067 -3067 884 884 
-1 691 691 691 691 691 691 691 691 691 691 691 691 691 691 691 691 691 -3115 -3115 -3115 -3115 -3115 -3115 -3115 -3115 -3115 -3115 -3115 -3115 -3115 -3115 -3115 2131 2131 2131 2131 2131 2131 2131 -3067 -3067 884 884 884 
-1 691 691 691 691 691 691 691 691 691 691 691 -3115 -3115 -3115 -3115 -3115 -3115 -3115 -3115 -3115 -3115 -3115 -3115 -3115 2131 2131 2131 2131 2131 2131 2131 2131 2131 -3067 -3067 -3067 -3067 -3067 -3067 884 1002 1002 1002 
-1 691 691 691 691 691 691 691 691 691 691 691 691 691 691 691 691 691 -3115 -3115 -3115 -3115 -3115 -3115 -3115 -3115 2131 2131 2131 2131 2131 2131 2131 2131 -3067 -3067 -3067 -3067 -3067 1002 
-1 691 691 691 691 691 691 691 691 691 691 691 691 691 691 691 691 -3115 -3115 -3115 -3115 -3115 -3115 -3115 -3115 -3115 -3115 -3115 -3115 -3115 -3115 2131 2131 2131 2131 2131 2131 -3067 -3067 -3067 -3067 -3067 884 884 1002 
-1 691 691 691 691 691 691 691 691 691 691 691 691 691 691 691 -3115 -3115 -3115 -3115 -3115 -3115 -3115 -3115 -3115 -3115 -3115 -3115 -3115 -3115 2131 2131 2131 2131 -3067 -3067 884 1002 1002 
-1 691 691 691 691 691 691 691 691 691 691 691 691 691 691 691 691 691 691 691 691 691 691 691 -3115 -3115 -3115 -3115 -3115 -3115 2131 2131 2131 2131 2131 2131 2131 2131 2131 2131 -3067 -3067 -3067 -3067 884 1002 1002 
-1 691 691 691 691 691 691 691 691 691 691 691 691 -3115 -3115 -3115 -3115 -3115 2131 2131 2131 2131 2131 -3067 -3067 -3067 -3067 -3067 884 
-1 691 691 691 691 691 691 691 691 691 691 691 691 691 691 691 691 -3115 -3115 -3115 -3115 -3115 -3115 -3115 -3115 -3115 -3115 -3115 -3115 -3115 2131 2131 2131 2131 2131 2131 2131 2131 -3067 -3067 1002 1002 
-1 691 691 691 691 691 691 691 691 691 691 691 691 691 691 691 691 691 691 691 -3115 -3115 -3115 -3115 -3115 -3115 -3115 -3115 2131 2131 2131 2131 2131 2131 -3067 -3067 -3067 -3067 -3067 -3067 1002 1002 1002 
-1 765 765 765 765 765 765 765 765 765 765 765 765 765 765 765 765 765 765 765 765 765 765 765 765 -3752 -3752 -3752 -3752 -3752 -3752 -3752 -3752 -3752 961 961 961 961 961 -3852 -3852 -3852 
-1 765 765 765 765 765 765 765 765 765 765 765 765 765 765 765 -3752 -3752 -3752 -3752 -3752 -3752 -3752 -3752 -3752 -3752 961 961 961 961 -3852 -3852 -3852 812 812 812 
-1 765 765 765 765 765 765 765 765 765 765 765 765 765 765 765 765 765 765 765 765 765 765 765 765 765 -3752 -3752 -3752 -3752 -3752 -3752 -3752 961 961 961 961 -3852 -3852 -3852 812 812 812 812 813 
-1 765 765 765 765 765 765 765 765 765 765 765 765 765 765 765 765 765 765 765 765 765 765 765 765 765 -3752 -3752 -3752 -3752 -3752 -3752 -3752 -3752 -3752 -3752 -3752 961 961 961 961 961 -3852 -3852 -3852 812 812 813 
-1 765 765 765 765 765 765 765 765 765 765 765 765 765 765 765 765 765 765 765 765 765 -3752 -3752 -3752 -3752 961 961 961 -3852 -3852 812 812 812 812 812 812 812 
-1 765 765 765 765 765 765 765 765 765 765 765 765 765 765 765 765 765 765 -3752 -3752 -3752 -3752 -3752 -3752 -3752 -3752 961 961 961 961 -3852 -3852 -3852 -3852 -3852 -3852 812 
-1 765 765 765 765 765 765 765 765 765 765 765 765 765 765 765 765 765 765 765 765 765 765 765 765 -3752 -3752 -3752 -3752 -3752 -3752 -3752 961 961 961 -3852 -3852 -3852 812 812 812 812 813 
-1 765 765 765 765 765 765 765 765 765 765 765 765 765 765 765 765 765 765 765 765 765 765 -3752 -3752 -3752 -3752 -3752 -3752 -3752 -3752 961 961 961 812 812 812 812 812 812 812 812 
-1 765 765 765 765 765 765 765 765 765 765 765 765 765 765 765 765 765 765 765 765 765 765 -3752 -3752 -3752 -3752 -3752 -3752 -3752 961 961 961 961 961 961 -3852 -3852 812 812 812 812 812 812 
-1 765 765 765 765 765 765 765 765 765 765 765 765 765 765 765 765 765 765 765 765 -3752 -3752 -3752 -3752 -3752 -3752 -3752 961 961 961 961 -3852 -3852 -3852 -3852 -3852 812 812 
-1 765 765 765 765 765 765 765 765 765 -3752 -3752 -3752 961 961 -3852 -3852 -3852 812 812 
-1 765 765 765 765 765 765 765 765 765 765 765 765 765 765 765 765 765 765 765 765 765 765 765 765 765 765 765 765 765 765 -3752 -3752 -3752 -3752 -3752 -3752 -3752 961 961 961 961 961 961 -3852 -3852 812 
-1 765 765 765 765 765 765 765 765 765 765 765 765 765 765 -3752 -3752 -3752 -3752 -3752 -3752 961 -3852 -3852 -3852 812 812 812 
-1 765 765 765 765 765 765 765 765 765 765 765 765 765 765 765 765 765 765 765 -3752 -3752 -3752 -3752 -3752 -3752 -3752 -3752 -3752 -3752 961 961 961 -3852 -3852 -3852 812 812 812 812 
-1 765 765 765 765 765 765 765 765 765 765 765 765 765 765 765 765 765 -3752 -3752 -3752 -3752 -3752 -3752 961 961 961 961 961 961 961 961 961 961 961 961 -3852 -3852 -3852 812 812 813 
-1 765 765 765 765 765 765 765 765 765 765 765 765 765 765 765 765 765 765 765 765 -3752 -3752 -3752 -3752 -3752 -3752 961 961 961 -3852 -3852 -3852 812 812 812 812 
-1 765 765 765 765 765 765 765 765 765 765 765 765 765 765 765 765 765 765 765 765 765 -3752 -3752 -3752 -3752 -3752 -3752 -3752 -3752 -3752 961 961 961 961 961 961 961 -3852 813 813 
-1 765 765 765 765 765 765 765 765 765 765 765 765 765 765 765 765 765 765 765 765 765 765 765 765 765 765 765 765 765 -3752 -3752 -3752 -3752 -3752 961 961 961 961 961 961 -3852 -3852 -3852 812 812 812 812 812 
-1 765 765 765 765 765 765 765 765 765 765 765 765 765 765 765 765 765 765 -3752 -3752 -3752 -3752 -3752 -3752 -3752 961 -3852 -3852 -3852 -3852 812 812 812 813 
-1 765 765 765 765 765 765 765 765 765 765 765 765 765 765 765 765 765 765 765 765 -3752 -3752 961 -3852 -3852 -3852 812 812 
-1 765 765 765 765 765 765 765 765 765 765 765 765 765 765 765 765 765 765 765 765 765 765 765 765 765 -3752 -3752 -3752 -3752 -3752 -3752 -3752 -3752 -3752 -3752 -3752 961 961 961 -3852 -3852 -3852 812 812 812 812 812 812 
-1 765 765 765 765 765 765 765 765 765 765 765 765 765 765 765 765 765 765 765 765 765 765 765 -3752 -3752 -3752 -3752 -3752 -3752 -3752 -3752 -3752 -3752 -3752 -3752 -3752 961 961 -3852 -3852 -3852 -3852 -3852 -3852 812 
-1 765 765 765 765 765 765 765 765 765 765 765 765 765 765 765 765 765 765 765 765 765 765 -3752 -3752 -3752 -3752 -3752 -3752 -3752 -3752 961 961 961 961 961 961 961 -3852 -3852 812 812 812 813 
-1 765 765 765 765 765 765 765 765 765 765 765 765 765 765 765 765 765 765 765 765 765 765 -3752 -3752 -3752 -3752 -3752 -3752 -3752 -3752 961 961 961 961 961 961 961 961 961 -3852 -3852 -3852 -3852 -3852 -3852 812 812 812 812 813 
-1 765 765 765 765 765 765 765 765 765 765 765 765 765 765 765 765 765 765 765 765 765 765 765 765 765 765 765 765 -3752 -3752 -3752 -3752 -3752 -3752 -3752 -3752 961 961 961 961 961 961 961 961 961 -3852 812 812 
-1 765 765 765 765 765 765 765 765 765 765 765 765 765 765 765 765 765 765 765 765 765 765 765 -3752 -3752 -3752 -3752 -3752 -3752 -3752 -3752 961 961 -3852 -3852 -3852 812 812 812 813 
-1 765 765 765 765 765 765 765 765 765 765 765 765 765 765 765 765 765 765 765 765 765 -3752 -3752 -3752 -3752 -3752 -3752 -3752 -3752 -3752 -3752 961 961 961 -3852 -3852 -3852 812 812 812 813 
-1 765 765 765 765 765 765 765 765 765 765 765 765 765 765 765 765 765 765 765 -3752 -3752 -3752 -3752 -3752 -3752 -3752 961 961 961 961 -3852 -3852 -3852 -3852 812 812 812 813 
-1 765 765 765 765 765 765 765 765 765 765 765 765 765 765 765 765 765 765 765 -3752 -3752 -3752 -3752 -3752 -3752 -3752 -3752 -3752 -3752 961 961 961 -3852 -3852 812 812 812 813 
-1 765 765 765 765 765 765 765 765 765 765 765 765 765 765 765 765 765 765 765 -3752 -3752 -3752 -3752 -3752 -3752 -3752 961 961 961 -3852 -3852 -3852 812 812 812 812 812 
-1 765 765 765 765 765 765 765 765 765 765 765 765 765 765 765 765 765 765 765 765 765 765 765 -3752 -3752 -3752 -3752 -3752 -3752 -3752 -3752 -3752 961 961 961 961 961 961 961 -3852 -3852 -3852 -3852 -3852 -3852 812 812 
-1 765 765 765 765 765 765 765 765 765 765 765 765 765 765 765 765 765 765 -3752 -3752 -3752 -3752 -3752 -3752 -3752 -3752 961 961 961 961 961 961 961 961 -3852 -3852 -3852 -3852 812 
-1 765 765 765 765 765 765 765 765 765 765 765 765 765 765 765 765 765 765 765 765 765 765 765 765 765 765 765 -3752 -3752 -3752 -3752 -3752 -3752 -3752 -3752 -3752 -3752 -3752 -3752 961 961 961 961 961 -3852 -3852 812 812 812 
-1 765 765 765 765 765 765 765 765 765 765 765 765 765 765 765 -3752 -3752 -3752 -3752 -3752 -3752 -3752 -3752 961 961 961 961 961 961 961 961 961 -3852 -3852 -3852 812 812 812 813 
-1 765 765 765 765 765 765 765 765 765 765 765 765 765 765 765 765 765 765 765 765 765 765 -3752 -3752 -3752 -3752 -3752 -3752 -3752 -3752 -3752 -3752 -3752 -3752 -3752 -3752 961 961 961 961 -3852 -3852 -3852 -3852 812 812 813 
-1 765 765 765 765 765 765 765 765 765 765 765 765 765 765 765 765 765 765 765 765 765 765 765 -3752 -3752 -3752 -3752 -3752 -3752 -3752 -3752 -3752 -3752 -3752 -3752 -3752 961 961 961 961 -3852 -3852 -3852 -3852 812 813 813 813 
-1 765 765 765 765 765 765 765 765 765 765 765 765 765 765 765 765 765 765 765 765 765 765 765 765 765 765 765 765 -3752 -3752 -3752 961 961 961 -3852 -3852 -3852 812 812 813 
-1 765 765 765 765 765 765 765 765 765 765 765 -3752 -3752 -3752 -3752 -3752 -3752 961 961 812 812 812 
-1 765 765 765 765 765 765 765 765 765 765 765 765 765 765 -3752 -3752 -3752 -3752 -3752 -3752 -3752 -3752 -3752 -3752 -3752 961 961 961 961 961 961 -3852 -3852 812 812 812 
-1 765 765 765 765 765 765 765 765 765 765 765 765 765 765 765 765 765 765 765 765 765 765 765 765 765 765 -3752 -3752 -3752 961 961 961 -3852 -3852 812 812 813 
-1 765 765 765 765 765 765 765 765 765 765 765 765 765 765 765 765 765 765 765 765 765 765 -3752 -3752 -3752 -3752 -3752 -3752 -3752 -3752 -3752 -3752 -3752 961 961 961 961 961 961 961 -3852 -3852 812 812 812 812 
-1 765 765 765 765 765 765 765 765 765 765 765 765 765 765 765 765 765 765 765 765 765 765 765 765 -3752 -3752 -3752 -3752 -3752 -3752 -3752 -3752 961 961 961 961 961 961 961 -3852 -3852 -3852 812 812 813 813 813 
-1 765 765 765 765 765 765 765 765 765 765 765 765 765 765 765 765 765 765 -3752 -3752 -3752 -3752 -3752 -3752 -3752 -3752 -3752 961 961 961 961 961 812 812 813 813 
-1 765 765 765 765 765 765 765 765 765 765 765 765 765 765 765 765 765 765 765 765 -3752 -3752 -3752 -3752 -3752 -3752 -3752 -3752 961 961 961 961 961 961 -3852 -3852 812 
-1 765 765 765 765 765 765 765 765 765 765 765 765 765 765 765 765 765 765 765 765 -3752 -3752 -3752 -3752 -3752 -3752 -3752 -3752 961 961 961 961 961 961 -3852 -3852 -3852 -3852 812 812 812 812 812 813 
-1 765 765 765 765 765 765 765 765 765 765 765 765 765 765 765 765 765 765 765 765 765 765 765 765 765 765 765 -3752 -3752 -3752 -3752 -3752 -3752 -3752 -3752 -3752 -3752 -3752 -3752 -3752 -3752 961 961 961 -3852 -3852 -3852 -3852 812 813 
-1 765 765 765 765 765 765 765 765 765 765 765 -3752 -3752 -3752 -3752 -3752 961 961 961 961 961 961 961 961 961 -3852 -3852 -3852 
-1 765 765 765 765 765 765 765 765 765 765 765 765 765 765 765 -3752 -3752 -3752 -3752 -3752 -3752 -3752 -3752 961 961 961 -3852 -3852 -3852 812 812 812 
-1 765 765 765 765 765 765 765 765 765 765 765 765 765 765 765 765 765 765 765 765 765 765 765 -3752 -3752 -3752 -3752 -3752 -3752 -3752 -3752 -3752 -3752 961 961 961 961 961 961 961 961 -3852 -3852 812 812 812 
-1 765 765 765 765 765 765 765 765 765 765 765 765 765 765 765 765 765 765 765 765 765 -3752 -3752 -3752 -3752 -3752 -3752 -3752 -3752 961 961 961 961 961 961 -3852 -3852 -3852 812 812 812 -3421 
-1 765 765 765 765 765 765 765 765 765 765 765 765 765 765 765 765 765 765 -3752 -3752 -3752 -3752 -3752 -3752 -3752 961 961 961 961 961 961 961 961 -3852 812 812 812 813 813 
-1 765 765 765 765 765 765 765 765 765 765 765 765 765 765 765 765 765 765 765 -3752 -3752 -3752 961 961 961 961 961 961 961 961 -3852 812 812 812 
-1 765 765 765 765 765 765 765 765 765 765 765 765 765 765 765 765 -3752 -3752 -3752 -3752 -3752 961 961 961 961 961 -3852 -3852 -3852 -3852 -3852 813 
-1 765 765 765 765 765 765 765 765 765 765 765 765 765 765 765 765 765 765 765 765 765 765 765 765 -3752 -3752 -3752 -3752 -3752 -3752 -3752 -3752 -3752 -3752 -3752 -3752 961 961 961 961 961 961 961 -3852 -3852 812 
-1 765 765 765 765 765 765 765 765 765 765 765 765 765 765 765 -3752 -3752 -3752 -3752 -3752 -3752 -3752 -3752 -3752 -3752 961 961 961 961 961 -3852 812 812 812 
-1 765 765 765 765 765 765 765 765 765 765 765 765 765 765 765 765 765 765 765 765 765 -3752 -3752 -3752 -3752 -3752 -3752 -3752 -3752 -3752 961 961 961 -3852 -3852 -3852 812 812 
-1 765 765 765 765 765 765 765 765 765 765 765 -3752 -3752 -3752 -3752 -3752 -3752 -3752 -3752 -3752 961 961 961 961 961 961 961 -3852 -3852 -3852 -3852 -3852 812 812 812 813 
-1 765 765 765 765 765 765 765 765 765 765 765 765 765 765 765 765 765 765 765 765 765 765 765 -3752 -3752 -3752 -3752 -3752 -3752 961 961 961 961 961 961 961 -3852 -3852 812 812 
-1 834 834 834 834 834 834 -3756 -3756 -3756 -3756 -3756 871 871 871 871 871 871 871 871 
-1 1043 834 834 834 834 834 834 834 834 -3756 -3756 -3756 -3756 -3756 -3756 -3756 -3756 -3756 -3756 791 871 871 871 871 871 
-1 1043 1043 1043 -3587 834 834 834 834 834 -3756 -3756 -3756 -3756 -3756 -3756 -3756 -3756 -3756 -3756 -3756 871 871 871 871 871 871 871 871 871 
-1 1043 834 834 834 834 834 834 834 -3756 -3756 -3756 -3756 -3756 791 871 871 
-1 1043 1043 834 834 834 834 834 834 834 -3756 -3756 -3756 -3756 -3756 871 871 871 
-1 -3587 834 834 834 834 834 834 834 834 834 834 834 834 834 834 -3756 -3756 -3756 -3756 -3756 -3756 871 871 871 871 871 871 
-1 1043 1043 834 834 834 834 834 834 -3756 -3756 -3756 -3756 -3756 -3756 -3756 -3756 791 871 871 871 871 871 871 
-1 1043 -3587 834 834 834 834 834 834 834 -3756 -3756 -3756 -3756 -3756 -3756 -3756 -3756 -3756 -3756 871 871 871 871 871 
-1 1043 -3587 834 834 834 834 834 834 834 834 834 834 834 -3756 -3756 -3756 -3756 -3756 -3756 -3756 -3756 -3756 871 871 871 871 871 871 
-1 1043 -3587 834 834 834 834 834 834 834 834 834 834 834 834 834 834 834 -3756 -3756 -3756 -3756 -3756 -3756 -3756 791 871 871 871 871 871 871 871 
-1 1043 1043 1043 -3587 834 834 834 834 834 834 834 834 834 834 834 -3756 -3756 -3756 -3756 -3756 -3756 -3756 -3756 871 871 871 871 
-1 1043 -3587 834 834 834 834 834 834 834 834 -3756 -3756 -3756 -3756 -3756 -3756 -3756 -3756 791 871 871 871 871 871 871 -3179 
-1 1043 834 834 834 834 834 834 834 834 834 -3756 -3756 -3756 791 871 871 871 871 
-1 1043 1043 834 834 834 834 -3756 -3756 -3756 -3756 -3756 -3756 871 871 871 871 
-1 1043 -3587 834 834 834 834 834 834 834 834 834 834 834 -3756 -3756 -3756 -3756 -3756 -3756 871 871 871 871 871 871 
-1 1043 1043 834 834 834 834 834 834 834 834 834 834 834 834 834 834 -3756 -3756 -3756 -3756 -3756 -3756 -3756 -3756 -3756 -3756 -3756 871 871 871 871 
-1 1043 1043 1043 834 834 834 834 834 834 834 834 834 834 834 834 -3756 -3756 -3756 -3756 -3756 -3756 871 871 871 
-1 1043 1043 -3587 834 834 834 834 834 834 834 834 834 834 -3756 -3756 -3756 -3756 -3756 -3756 -3756 -3756 -3756 871 871 871 871 
-1 1043 834 834 834 834 834 834 -3756 -3756 -3756 -3756 -3756 -3756 871 871 871 871 871 
-1 834 834 834 834 834 834 834 834 834 834 834 834 834 -3756 -3756 -3756 -3756 -3756 -3756 -3756 871 871 871 871 871 
-1 834 834 834 834 834 834 834 834 834 -3756 -3756 -3756 -3756 871 871 871 871 871 871 871 
-1 834 834 834 834 -3756 -3756 -3756 -3756 -3756 -3756 -3756 -3756 871 871 871 
-1 1043 -3587 834 834 834 834 834 834 834 834 834 834 834 834 -3756 -3756 -3756 -3756 -3756 -3756 -3756 -3756 -3756 871 871 871 871 871 871 
-1 1043 1043 834 834 834 834 834 834 -3756 -3756 -3756 -3756 -3756 -3756 -3756 -3756 -3756 -3756 871 871 871 871 871 871 871 
-1 1043 1043 -3587 834 834 834 834 834 -3756 -3756 -3756 -3756 -3756 -3756 -3756 -3756 -3756 -3756 871 871 871 871 871 871 
-1 1043 -3587 834 834 834 834 834 834 834 -3756 -3756 -3756 -3756 -3756 -3756 871 871 871 871 871 
-1 -3587 834 834 834 834 834 834 834 834 834 834 -3756 -3756 -3756 -3756 871 871 871 871 
-1 1043 1043 -3587 834 834 834 834 834 834 -3756 -3756 -3756 -3756 -3756 791 871 871 871 871 
-1 1043 834 -3756 -3756 -3756 -3756 -3756 -3756 871 871 871 871 
-1 1043 834 834 834 834 834 834 -3756 -3756 -3756 -3756 871 871 871 871 
-1 1043 1043 834 834 834 834 834 834 834 834 -3756 -3756 -3756 -3756 -3756 -3756 -3756 -3756 871 871 871 871 871 
-1 1043 1043 834 834 834 834 834 834 834 834 834 834 834 -3756 -3756 -3756 -3756 -3756 -3756 -3756 -3756 -3756 -3756 -3756 871 871 871 871 871 871 871 871 871 
-1 -3587 834 834 834 834 834 834 -3756 -3756 -3756 -3756 871 871 871 871 871 871 
-1 1043 -3587 -3587 834 834 834 834 834 834 834 -3756 -3756 -3756 -3756 871 871 871 871 871 871 
-1 1043 1043 834 834 834 834 834 834 834 -3756 -3756 -3756 -3756 -3756 -3756 -3756 -3756 -3756 -3756 871 871 871 871 871 
-1 1043 834 834 834 834 834 834 834 -3756 -3756 -3756 -3756 871 871 871 871 871 871 
-1 1043 834 834 834 834 834 834 834 -3756 -3756 -3756 -3756 -3756 -3756 -3756 -3756 -3756 791 871 871 871 871 
-1 1043 1043 1043 -3587 834 834 834 834 834 834 834 834 834 -3756 -3756 -3756 -3756 -3756 -3756 -3756 -3756 -3756 871 871 871 871 
-1 1043 834 834 834 834 834 834 834 834 834 -3756 -3756 -3756 -3756 -3756 -3756 -3756 791 871 871 871 871 
-1 834 834 834 834 834 834 -3756 -3756 -3756 -3756 -3756 -3756 -3756 871 871 871 871 871 871 871 871 871 871 871 871 
-1 1043 834 834 834 834 834 834 -3756 -3756 -3756 -3756 871 871 871 
-1 834 834 834 834 834 834 834 -3756 -3756 -3756 -3756 -3756 -3756 -3756 -3756 -3756 791 871 871 871 871 
-1 1043 1043 834 834 834 834 834 834 834 834 834 834 -3756 -3756 -3756 -3756 -3756 -3756 -3756 -3756 -3756 -3756 871 871 871 871 871 
-1 1043 1043 1043 834 834 834 -3756 -3756 -3756 -3756 -3756 -3756 -3756 -3756 -3756 -3756 871 871 871 871 871 871 871 
-1 1043 1043 834 834 834 834 834 834 834 834 834 834 -3756 -3756 -3756 -3756 -3756 -3756 -3756 -3756 -3756 791 871 871 
-1 1043 -3587 834 834 834 834 834 834 834 834 834 834 -3756 -3756 -3756 -3756 -3756 -3756 -3756 -3756 -3756 -3756 871 871 871 
-1 -3587 -3587 834 834 834 834 834 -3756 -3756 -3756 -3756 -3756 871 871 871 871 871 871 871 871 871 871 
-1 1043 1043 834 834 834 834 834 834 834 834 834 -3756 -3756 -3756 -3756 -3756 -3756 -3756 -3756 -3756 871 871 871 871 871 
-1 1043 1043 834 834 834 834 834 834 834 834 -3756 -3756 -3756 -3756 -3756 -3756 -3756 791 871 871 871 871 
-1 1043 -3587 834 834 834 834 834 834 834 834 834 834 -3756 -3756 -3756 -3756 -3756 -3756 791 871 871 871 871 871 871 
-1 1043 1043 834 -3756 -3756 -3756 -3756 -3756 -3756 -3756 -3756 -3756 -3756 -3756 871 871 871 871 871 871 
-1 1043 834 834 834 834 834 834 834 834 834 834 834 834 -3756 -3756 -3756 -3756 -3756 871 871 871 
-1 1043 834 834 834 834 834 834 834 834 834 -3756 -3756 -3756 -3756 -3756 -3756 871 871 871 
-1 1043 1043 1043 834 834 834 834 834 834 834 834 834 834 -3756 -3756 -3756 -3756 -3756 871 871 871 871 871 871 871 871 871 
-1 1043 1043 834 834 834 834 834 834 834 834 834 834 834 -3756 -3756 -3756 -3756 -3756 -3756 -3756 871 871 871 871 
-1 1043 1043 834 834 834 834 834 834 834 834 834 -3756 -3756 -3756 -3756 -3756 -3756 -3756 871 871 871 871 871 871 871 871 
-1 -3587 834 834 834 834 834 834 834 -3756 -3756 -3756 -3756 -3756 -3756 871 871 871 
-1 -3587 834 834 834 834 834 834 834 -3756 -3756 -3756 -3756 -3756 -3756 -3756 -3756 -3756 871 871 871 871 
-1 1043 834 834 834 834 834 -3756 -3756 -3756 -3756 -3756 -3756 -3756 791 871 871 871 871 871 871 871 
-1 1043 1043 1043 1043 834 834 834 834 834 834 834 834 834 834 834 -3756 -3756 -3756 -3756 -3756 -3756 -3756 -3756 -3756 791 871 871 871 871 871 871 
-1 1043 834 834 834 834 834 834 -3756 -3756 -3756 -3756 -3756 871 871 871 
-1 1043 1043 -3587 834 834 834 834 834 834 834 834 -3756 -3756 -3756 871 871 871 
-1 834 834 834 834 834 834 834 -3756 -3756 -3756 -3756 -3756 -3756 -3756 -3756 -3756 -3756 -3756 -3756 -3756 871 
-1 1043 1043 1043 1043 1043 1043 834 834 834 834 834 834 834 834 -3756 -3756 -3756 -3756 -3756 -3756 -3756 791 871 871 871 871 871 871 871 
-1 834 834 834 834 834 834 834 834 834 834 834 -3756 -3756 -3756 -3756 -3756 -3756 -3756 -3756 -3756 -3756 791 871 871 
-1 1043 1043 -3587 834 834 834 834 834 834 834 834 834 834 834 834 834 834 -3756 -3756 -3756 -3756 -3756 791 871 871 871 
-1 1043 1043 1043 834 834 834 834 834 834 834 -3756 -3756 -3756 -3756 871 871 871 871 871 
-1 1043 1043 1043 834 834 834 834 834 834 834 834 834 -3756 -3756 -3756 -3756 871 871 871 871 871 871 
-1 1043 -3587 834 834 834 834 834 834 834 834 834 -3756 -3756 -3756 -3756 -3756 -3756 -3756 -3756 -3756 -3756 -3756 -3756 -3756 871 871 871 871 871 871 
-1 1043 1043 1043 834 834 834 834 834 834 834 834 834 834 -3756 -3756 -3756 -3756 -3756 -3756 -3756 -3756 -3756 -3756 871 871 871 871 
-1 -3587 834 834 834 834 834 834 834 -3756 -3756 -3756 -3756 -3756 -3756 -3756 -3756 -3756 -3756 -3756 -3756 -3756 791 871 871 871 871 871 
-1 1043 834 834 834 -3756 -3756 -3756 -3756 -3756 -3756 -3756 -3756 -3756 -3756 871 871 871 871 871 
-1 1043 -3587 834 834 834 834 834 834 834 834 834 -3756 -3756 -3756 -3756 -3756 -3756 -3756 871 871 871 871 871 871 
-1 1043 834 834 834 834 834 834 -3756 -3756 -3756 -3756 -3756 -3756 -3756 791 871 871 871 871 871 
-1 -3587 -3587 834 834 834 834 834 834 834 834 834 -3756 -3756 -3756 -3756 -3756 -3756 -3756 -3756 -3756 -3756 -3756 -3756 871 
-1 1043 1043 1043 1043 834 834 834 -3756 -3756 -3756 -3756 -3756 -3756 -3756 -3756 -3756 871 871 871 871 871 
-1 1043 834 834 834 834 834 834 834 834 834 -3756 -3756 -3756 -3756 -3756 -3756 -3756 -3756 871 871 871 871 871 871 
-1 1043 -3587 834 834 834 834 834 -3756 -3756 -3756 -3756 -3756 -3756 -3756 -3756 -3756 -3756 -3756 871 871 
-1 834 834 834 834 834 834 834 -3756 791 871 871 871 871 
-1 1043 834 834 834 834 834 834 834 834 834 834 -3756 -3756 -3756 -3756 -3756 -3756 -3756 -3756 871 871 871 
-1 834 834 834 834 834 834 834 834 834 834 834 834 -3756 -3756 -3756 -3756 -3756 -3756 871 871 871 871 871 
-1 1043 834 834 834 834 834 834 834 834 834 834 834 -3756 -3756 -3756 -3756 -3756 -3756 871 
-1 834 834 834 834 -3756 -3756 -3756 871 871 871 871 871 
-1 -3587 -3587 834 834 834 834 834 834 834 -3756 -3756 -3756 -3756 -3756 -3756 871 871 871 871 871 871 
-1 1043 1043 1043 1043 834 834 834 834 834 -3756 -3756 -3756 -3756 871 871 871 871 
-1 1043 834 834 834 834 834 834 834 -3756 -3756 -3756 -3756 -3756 -3756 -3756 -3756 791 791 871 871 871 
-1 1043 1043 834 834 834 834 834 834 834 834 834 -3756 -3756 -3756 -3756 -3756 791 791 871 871 871 871 871 871 871 871 
-1 834 834 834 834 834 834 -3756 -3756 -3756 -3756 -3756 871 871 871 
-1 1043 -3587 834 834 834 834 834 834 834 -3756 -3756 -3756 -3756 -3756 -3756 -3756 -3756 -3756 -3756 791 871 871 871 871 
-1 834 834 834 -3756 -3756 -3756 -3756 -3756 -3756 -3756 791 871 871 871 871 
-1 1043 -3587 834 834 834 834 834 834 834 -3756 -3756 -3756 -3756 -3756 871 871 871 871 871 871 
-1 1043 834 834 834 834 834 834 834 834 834 -3756 -3756 -3756 -3756 -3756 -3756 -3756 871 871 871 871 
-1 1043 834 834 834 834 -3756 -3756 -3756 -3756 -3756 -3756 -3756 -3756 -3756 -3756 -3756 871 
-1 1043 1043 1043 834 834 834 834 834 834 834 834 834 834 -3756 -3756 -3756 -3756 -3756 -3756 871 871 871 871 
-1 1043 834 834 834 -3756 -3756 -3756 -3756 -3756 -3756 -3756 -3756 -3756 871 871 871 871 871 
-1 834 834 834 834 834 834 834 834 834 834 834 834 834 -3756 -3756 -3756 -3756 -3756 -3756 871 871 871 871 871 
-1 -3587 834 834 834 834 834 834 834 -3756 -3756 -3756 -3756 -3756 -3756 -3756 871 871 
-1 1043 834 834 834 834 -3756 -3756 -3756 -3756 -3756 -3756 -3756 -3756 -3756 -3756 871 871 871 
-1 834 834 834 834 834 834 834 -3756 -3756 -3756 -3756 -3756 871 871 871 
-1 834 834 834 834 834 834 834 834 834 834 834 834 834 834 -3756 -3756 -3756 791 871 871 871 871 871 871 
-1 1043 -3587 834 834 834 834 834 -3756 -3756 -3756 -3756 -3756 -3756 -3756 -3756 871 871 871 871 871 871 
-1 1043 834 834 834 834 834 834 -3756 -3756 -3756 -3756 -3756 -3756 -3756 -3711 871 871 871 871 871 871 871 
-1 1043 1043 834 834 834 834 834 834 834 834 834 834 834 -3756 -3756 -3756 -3756 -3756 -3756 791 871 871 871 
-1 1043 834 834 834 834 834 834 834 834 834 834 -3756 -3756 -3756 -3756 -3756 -3756 -3756 -3756 871 871 871 871 871 871 871 
-1 1043 1043 834 834 834 834 834 834 834 -3756 -3756 -3756 -3756 -3756 -3756 -3756 -3756 -3756 871 871 871 871 
-1 834 834 834 834 834 834 834 -3756 -3756 -3756 -3756 -3756 -3756 -3756 -3756 791 871 871 871 871 
-1 1043 834 834 834 834 834 834 834 834 834 -3756 -3756 -3756 -3756 -3756 -3756 -3756 791 871 871 871 871 
-1 1043 834 834 834 834 834 834 834 834 -3756 -3756 -3756 -3756 -3756 871 871 871 871 871 
-1 1043 1043 834 834 834 834 834 834 834 834 834 834 -3756 -3756 -3756 -3756 -3756 -3756 -3756 -3756 871 871 871 871 871 
-1 1043 834 834 834 834 834 834 834 834 834 834 -3756 -3756 -3756 -3756 -3756 -3756 -3756 -3756 871 871 871 
-1 834 834 834 834 834 834 834 834 -3756 -3756 -3756 -3756 -3756 871 871 871 871 
-1 -3587 834 834 834 834 834 -3756 -3756 -3756 -3756 -3756 -3756 -3756 871 871 871 871 871 871 871 871 
-1 1043 1043 834 834 834 834 834 834 834 834 -3756 -3756 -3756 -3756 -3756 -3756 -3756 -3756 -3756 -3756 -3756 -3756 791 871 871 871 871 871 871 
-1 1043 -3587 834 834 834 834 834 834 834 -3756 -3756 -3756 -3756 -3756 -3756 -3756 871 871 871 871 
-1 -3587 834 834 834 -3756 -3756 -3756 -3756 -3756 -3756 -3756 -3756 -3756 -3756 871 871 871 871 871 
-1 1043 1043 834 834 834 834 834 -3756 -3756 -3756 -3756 -3756 -3756 -3756 -3756 -3756 -3756 -3756 791 871 871 871 871 871 871 871 871 -3179 
-1 834 834 834 834 834 834 834 -3756 -3756 -3756 -3756 -3756 -3756 -3756 -3756 -3756 -3711 871 871 871 871 871 871 871 871 
-1 1043 1043 834 834 834 834 834 834 834 834 -3756 -3756 -3756 -3756 -3756 -3756 -3756 -3756 -3756 -3756 -3756 871 871 871 871 
-1 1043 834 834 834 834 834 834 834 834 834 834 834 834 -3756 -3756 -3756 -3756 -3756 -3756 -3756 871 871 871 871 871 871 871 
-1 1043 834 834 834 834 -3756 -3756 -3756 -3756 -3756 -3756 -3756 871 871 871 871 871 871 871 
-1 834 834 834 834 834 834 834 834 834 -3756 -3756 -3756 -3756 -3756 -3756 -3756 871 871 871 871 871 
-1 -3587 834 834 834 834 834 834 834 834 834 834 834 834 834 -3756 -3756 -3756 -3756 -3756 -3756 -3756 871 871 871 871 871 871 871 
-1 1043 834 834 834 834 834 834 834 834 834 834 834 -3756 -3756 -3756 871 871 871 871 
-1 1043 1043 1043 834 834 834 -3756 -3756 -3756 -3756 -3756 791 871 871 871 871 871 871 871 871 871 871 
-1 1043 1043 834 834 834 834 834 834 834 834 834 834 834 834 834 834 834 -3756 -3756 -3756 -3756 871 871 871 
-1 834 834 834 834 834 834 834 834 834 834 834 834 834 834 -3756 -3756 -3756 -3756 -3756 -3756 -3756 871 871 871 871 871 871 871 
-1 1043 834 834 834 834 834 834 834 834 834 -3756 -3756 -3756 -3756 871 871 871 871 871 
-1 834 834 834 834 834 834 834 834 834 834 834 -3756 -3756 -3756 -3756 -3756 -3756 -3756 -3756 -3756 871 871 871 871 
-1 -3587 834 834 834 834 834 -3756 -3756 -3756 -3756 -3756 -3756 871 871 871 871 
-1 834 834 834 834 834 834 834 -3756 -3756 -3756 -3756 -3756 -3756 -3756 -3756 -3756 871 871 871 
-1 1043 1043 834 834 834 834 834 834 834 -3756 -3756 -3756 -3756 -3756 -3756 -3756 -3756 -3756 -3756 -3756 871 871 871 871 
-1 -3587 834 834 834 834 834 834 834 834 -3756 -3756 -3756 -3756 -3756 871 871 871 871 871 871 
-1 1043 1043 -3587 834 834 834 834 834 834 834 834 834 834 834 -3756 -3756 -3756 -3756 -3756 -3756 -3756 -3756 871 871 871 871 871 
-1 834 834 834 834 834 834 834 834 834 834 834 834 -3756 -3756 -3756 -3756 -3756 -3756 -3756 -3756 871 871 871 871 871 871 871 871 
-1 1043 1043 -3587 834 834 834 834 834 834 834 834 834 -3756 -3756 -3756 791 871 871 
-1 1043 1043 1043 834 834 834 834 834 834 834 834 -3756 -3756 -3756 -3756 -3756 -3756 871 871 871 871 871 871 871 871 
-1 834 834 834 834 834 834 -3756 -3756 -3756 -3756 -3756 -3756 -3756 -3756 791 871 871 871 871 871 871 871 871 871 871 
-1 1043 1043 1043 834 834 834 834 834 834 834 834 834 -3756 -3756 -3756 -3756 -3756 -3756 -3756 -3756 871 871 871 871 871 871 871 871 871 871 871 871 
-1 1043 834 834 834 834 834 834 834 834 -3756 -3756 -3756 -3756 -3756 -3756 -3756 -3756 791 871 871 871 871 
-1 1043 1043 834 834 834 834 -3756 -3756 -3756 -3756 -3756 -3756 -3756 791 871 871 871 
-1 1043 834 834 834 834 834 -3756 -3756 -3756 -3756 -3756 791 871 871 871 871 871 871 871 871 871 
-1 -3587 834 834 834 834 834 834 -3756 -3756 -3756 -3756 871 871 871 871 
-1 1043 1043 834 834 834 834 834 834 834 834 834 -3756 -3756 -3756 -3756 -3756 -3756 -3756 -3756 -3756 871 871 871 871 871 871 
-1 1043 1043 834 834 834 834 834 834 834 -3756 -3756 -3756 -3756 -3756 -3756 -3756 871 871 
-1 1043 834 834 834 834 834 834 834 -3756 -3756 -3756 -3756 -3756 871 871 871 871 871 871 871 871 871 871 871 
-1 1043 834 834 834 834 834 834 -3756 -3756 -3756 -3756 -3756 -3756 -3756 -3756 -3756 -3756 -3756 -3756 -3756 871 871 871 
-1 1043 834 834 834 834 834 834 -3756 -3756 -3756 -3756 -3756 -3756 -3756 -3756 -3756 -3756 -3756 -3756 -3756 -3756 871 871 871 
-1 1043 1043 -3587 834 834 834 834 834 834 834 834 834 834 834 834 -3756 -3756 -3756 -3756 -3756 -3756 -3756 -3756 -3756 -3756 -3756 -3756 871 871 871 
-1 1043 1043 1043 -3587 834 834 834 834 834 834 834 834 834 834 834 834 -3756 -3756 -3756 -3756 -3756 871 871 871 871 871 
-1 834 834 834 834 -3756 -3756 -3756 -3756 -3756 -3756 791 871 871 -3179 
-1 1043 834 834 834 834 834 834 834 -3756 -3756 -3756 -3756 -3756 -3756 -3756 -3756 871 871 871 871 871 871 
-1 1043 1043 834 834 834 834 834 834 834 834 -3756 -3756 -3756 -3756 -3756 -3756 -3756 -3756 871 871 871 871 871 871 
-1 1043 834 834 834 834 834 834 834 -3756 -3756 -3756 -3756 -3756 -3756 -3756 791 871 871 871 
-1 834 834 834 834 834 834 834 834 834 834 834 834 834 -3756 -3756 -3756 -3756 -3756 -3756 -3756 -3756 -3756 871 871 871 
-1 1043 834 834 834 834 834 834 834 -3756 -3756 -3756 -3756 -3756 791 871 871 871 871 871 
-1 1043 1043 834 834 834 834 834 834 834 834 -3756 -3756 -3756 -3756 -3756 -3756 -3756 -3756 -3756 -3756 -3756 -3756 871 871 871 871 871 
-1 834 834 834 834 834 834 834 834 834 834 -3756 -3756 -3756 -3756 871 871 871 871 871 
-1 1043 1043 834 834 834 834 834 834 834 834 834 -3756 -3756 -3756 -3756 -3756 -3756 -3756 -3756 791 871 871 871 871 
-1 834 834 834 834 834 834 -3756 -3756 -3756 -3756 -3756 871 871 871 871 871 
-1 834 834 834 834 834 834 834 834 834 -3756 -3756 -3756 -3756 -3756 -3756 -3756 -3756 871 871 871 
-1 834 834 834 834 834 834 834 834 834 834 834 834 834 -3756 -3756 -3756 -3756 -3756 -3756 -3756 791 871 871 871 871 
-1 1043 -3587 834 834 834 834 834 834 834 834 834 834 -3756 -3756 -3756 -3756 -3756 -3756 -3756 -3756 -3756 871 
-1 1043 1043 834 834 834 834 834 834 -3756 -3756 -3756 -3756 -3756 -3756 -3756 -3756 -3756 -3756 -3756 -3756 871 871 871 871 871 
-1 1043 1043 1043 834 834 834 834 834 834 834 834 834 -3756 -3756 -3756 -3756 -3756 -3756 871 871 871 
-1 1043 1043 -3587 -3587 834 834 834 834 834 834 834 834 834 -3756 -3756 -3756 -3756 -3756 -3756 -3756 -3756 871 871 871 871 871 871 
-1 834 834 834 834 834 834 834 834 834 834 834 -3756 -3756 -3756 -3756 -3756 -3756 -3756 -3756 -3756 -3756 -3756 -3756 -3756 -3756 -3756 791 871 871 871 871 871 871 871 871 
-1 1043 834 834 834 834 834 834 -3756 -3756 -3756 -3756 -3756 -3756 -3756 -3756 -3756 -3756 871 871 871 871 871 871 871 
-1 1043 834 834 834 834 834 834 -3756 -3756 -3756 -3756 -3756 -3756 -3756 -3756 -3756 871 871 871 871 871 871 871 871 
-1 1043 1043 1043 834 834 834 834 834 -3756 -3756 -3756 -3756 -3756 791 871 871 871 871 871 871 
-1 1043 834 834 834 834 834 834 834 834 834 834 -3756 -3756 -3756 -3756 -3756 -3756 -3756 -3756 -3756 -3756 -3756 -3756 791 791 871 871 871 
-1 1043 -3587 834 834 834 834 834 -3756 -3756 -3756 -3756 -3756 -3756 -3756 -3756 -3756 -3756 -3756 871 871 871 871 
-1 1043 -3587 834 834 834 834 834 834 834 834 -3756 -3756 -3756 -3756 -3756 -3756 -3756 -3756 -3756 -3756 -3756 871 871 871 871 871 
-1 834 834 834 834 834 834 834 834 834 834 -3756 -3756 -3756 -3756 -3756 -3756 -3756 -3756 -3756 871 871 871 871 871 
-1 1043 834 834 834 834 834 834 -3756 -3756 -3756 871 871 
-1 1043 1043 -3587 834 834 834 834 834 834 834 834 834 834 -3756 -3756 -3756 -3756 -3756 -3756 -3756 -3756 791 871 871 871 871 
-1 1043 -3587 834 834 834 -3756 -3756 -3756 -3756 -3756 -3756 -3756 -3756 871 871 871 871 871 871 
-1 1043 -3587 834 834 834 834 834 834 834 834 834 834 -3756 -3756 -3756 871 871 871 871 871 
-1 1043 834 834 834 834 834 834 834 834 834 834 834 834 -3756 -3756 -3756 -3756 -3756 -3756 -3756 -3756 -3756 -3756 871 871 871 871 
-1 1043 834 834 834 834 834 834 834 834 834 834 -3756 -3756 -3756 -3756 -3756 -3756 -3756 -3756 -3756 871 871 871 871 871 
-1 834 834 834 834 834 834 834 834 834 834 834 834 834 834 834 -3756 -3756 -3756 -3756 -3756 -3756 871 871 871 
-1 1043 1043 1043 834 834 834 834 834 834 834 -3756 -3756 -3756 -3756 -3756 -3756 871 871 871 871 
-1 1043 -3587 -3587 834 834 834 834 834 834 -3756 -3756 -3756 -3756 -3756 791 871 871 871 871 871 871 
-1 834 834 834 834 834 834 -3756 -3756 -3756 -3756 -3756 -3756 -3756 -3756 791 791 871 871 
-1 1043 1043 834 834 834 834 834 834 834 834 834 834 834 834 834 834 -3756 -3756 -3756 -3756 871 871 871 871 871 871 871 871 871 
-1 834 834 834 -3756 -3756 -3756 -3756 -3756 -3756 871 871 871 871 871 871 
-1 1043 1043 1043 1043 -3587 834 834 834 834 834 834 834 834 -3756 -3756 -3756 -3756 -3756 -3756 -3756 871 871 871 871 871 871 871 
-1 834 834 834 834 834 834 -3756 -3756 -3756 -3756 -3756 -3756 -3756 -3756 -3756 -3756 871 871 871 871 871 
-1 1043 1043 1043 834 834 834 834 834 834 -3756 -3756 -3756 -3756 -3756 -3756 -3756 -3756 -3756 -3756 -3756 791 871 871 871 871 -3179 
-1 834 834 834 834 834 834 834 -3756 -3756 -3756 -3756 -3756 -3756 -3756 871 871 871 871 871 871 871 871 
-1 -3587 834 834 834 834 -3756 -3756 -3756 -3756 -3756 -3756 871 871 871 871 871 
-1 1043 834 834 834 834 834 834 -3756 -3756 -3756 -3756 -3756 -3756 871 871 871 871 871 
-1 834 834 834 834 834 834 834 834 834 834 834 -3756 -3756 -3756 -3756 -3756 871 871 871 871 
-1 1043 1043 834 834 834 834 834 834 834 834 834 834 -3756 -3756 -3756 -3756 871 871 871 871 871 
-1 1043 834 834 834 834 -3756 -3756 -3756 -3756 -3756 -3756 -3756 871 871 871 871 871 871 871 871 
-1 1043 -3587 -3587 834 834 834 834 834 834 834 834 834 834 834 -3756 -3756 -3756 -3756 871 871 
-1 1043 1043 834 834 834 834 834 834 834 834 -3756 -3756 -3756 -3756 -3756 -3756 791 871 871 
-1 1043 834 834 834 834 834 834 834 834 834 834 -3756 -3756 -3756 -3756 -3756 -3756 871 871 871 871 871 
-1 1043 834 834 834 834 834 834 834 -3756 -3756 -3756 -3756 -3756 -3756 -3756 871 871 871 871 871 871 871 871 871 
-1 -3587 834 834 834 834 834 -3756 -3756 -3756 -3756 -3756 871 871 871 
-1 1043 1043 -3587 834 834 834 834 834 -3756 -3756 -3756 -3756 -3756 -3756 871 871 871 
-1 834 834 834 834 834 834 834 834 -3756 -3756 -3756 -3756 -3756 -3756 791 871 871 871 871 871 
-1 1043 834 834 834 -3756 -3756 -3756 -3756 -3756 871 871 871 871 871 871 
-1 834 834 834 834 834 834 834 834 -3756 -3756 -3756 -3756 -3756 -3756 -3756 -3756 -3756 -3756 -3756 -3756 791 871 871 871 871 871 871 871 
-1 834 834 -3756 -3756 -3756 -3756 -3756 -3756 -3756 871 871 871 871 
-1 1043 1043 834 834 834 834 834 834 834 834 834 834 -3756 -3756 -3756 -3756 -3756 -3756 -3756 -3756 -3756 -3756 -3756 -3756 -3756 871 871 871 871 871 871 
-1 1043 1043 834 834 834 834 834 -3756 -3756 -3756 -3756 -3756 -3756 -3756 -3756 871 871 871 
-1 1043 -3587 -3587 -3587 834 834 834 834 834 834 -3756 -3756 -3756 -3756 -3756 -3756 -3756 -3756 -3756 -3756 871 871 
-1 1043 1043 834 834 834 834 834 834 -3756 -3756 -3756 -3756 -3756 871 871 871 871 
-1 1043 1043 834 834 834 834 834 834 834 834 834 -3756 -3756 -3756 -3756 -3756 -3756 871 871 871 871 
-1 834 834 834 834 834 834 -3756 -3756 -3756 -3756 871 871 871 871 871 871 871 
-1 1043 834 834 834 834 834 834 834 834 -3756 -3756 -3756 -3756 -3756 -3756 -3756 -3756 -3756 871 871 871 871 871 871 871 871 871 871 
-1 1043 834 834 834 834 834 -3756 -3756 -3756 -3756 -3756 -3756 -3756 -3756 871 871 871 871 871 
-1 1043 -3587 834 834 834 834 834 834 834 -3756 -3756 -3756 -3756 -3756 -3756 871 871 871 871 871 871 871 871 
-1 1043 834 834 834 834 834 -3756 -3756 -3756 -3756 -3756 -3756 -3756 871 871 871 871 871 871 
-1 1043 834 834 834 834 834 834 834 834 834 834 834 834 834 834 -3756 -3756 -3756 -3756 -3756 -3756 -3756 -3756 -3756 871 871 
-1 1043 1043 834 834 834 834 834 834 834 834 -3756 -3756 -3756 -3756 -3756 -3756 791 871 871 871 871 871 871 871 
-1 1043 1043 -3587 834 834 834 834 834 834 834 834 834 834 834 -3756 -3756 -3756 -3756 -3756 -3756 -3756 -3756 -3756 -3756 791 871 871 871 
-1 1043 1043 -3587 834 834 834 834 834 834 834 834 834 834 834 834 834 834 834 -3756 -3756 -3756 -3756 -3756 -3756 -3756 -3756 -3756 871 
-1 1043 834 834 834 834 834 834 834 834 834 834 834 834 -3756 -3756 -3756 871 871 871 871 871 
-1 811 811 811 811 811 811 811 811 811 811 811 811 -3323 910 910 910 910 910 910 910 910 910 910 910 910 910 -3616 -3616 -3616 -3616 -3616 -3616 -3616 -3616 -3616 -3616 -3616 803 803 803 803 803 803 803 803 803 803 803 803 803 803 
-1 811 811 811 811 811 811 811 811 811 811 811 811 811 910 910 910 910 910 910 910 910 910 910 910 -3616 -3616 -3616 -3616 -3616 -3616 -3616 -3616 803 803 803 803 803 803 803 803 803 803 
-1 811 811 811 811 811 811 811 811 811 910 910 910 910 910 910 910 910 910 910 910 910 910 -3616 -3616 -3616 -3616 -3616 -3616 -3616 -3616 -3616 -3616 803 803 803 803 803 803 803 803 803 803 803 803 803 803 
-1 811 811 811 811 811 811 811 811 811 811 811 811 811 811 910 910 910 910 910 910 910 910 910 910 910 910 910 910 910 910 910 910 -3616 -3616 -3616 -3616 803 803 803 803 803 803 803 803 803 803 803 803 803 
-1 811 811 811 811 811 811 811 811 811 811 811 -3323 910 910 910 910 910 910 910 910 910 910 910 910 -3616 -3616 -3616 -3616 -3616 -3616 -3616 803 803 803 803 803 803 803 803 803 803 803 803 803 -3480 
-1 811 811 811 811 811 811 811 811 811 910 910 910 910 910 910 910 910 910 910 -3616 -3616 -3616 -3616 -3616 -3616 -3616 -3616 -3616 -3616 803 803 803 803 803 803 803 803 803 803 
-1 811 811 811 811 811 811 811 811 811 811 -3323 910 910 910 910 910 910 910 910 910 910 910 910 910 910 910 910 -3616 -3616 -3616 -3616 -3616 -3616 -3616 803 803 803 803 803 803 803 803 803 803 803 803 803 803 803 803 803 803 803 803 803 803 803 
-1 811 811 811 811 811 811 811 811 811 910 910 910 910 910 910 910 910 910 910 910 -3616 -3616 -3616 -3616 -3616 -3616 -3616 -3616 -3616 -3616 803 803 803 803 803 803 803 803 803 803 803 803 803 803 
-1 811 811 811 811 811 811 811 811 811 811 811 811 811 811 910 910 910 910 910 910 910 910 910 910 910 910 -3616 -3616 -3616 803 803 803 803 803 803 803 803 803 803 803 
-1 811 811 811 811 811 811 811 811 811 811 -3323 910 910 910 910 910 910 910 910 910 910 -3616 -3616 -3616 -3616 -3616 -3616 -3616 -3616 803 803 803 803 803 803 803 803 803 803 803 803 803 
-1 811 811 811 811 811 811 811 811 811 811 910 910 910 910 910 910 910 910 910 910 910 910 910 910 910 910 -3616 -3616 -3616 -3616 803 803 803 803 803 803 803 803 803 803 803 
-1 811 811 811 811 811 811 811 811 811 811 -3323 910 910 910 910 910 910 910 910 910 910 910 910 910 910 910 -3616 -3616 -3616 -3616 -3616 -3616 -3616 -3616 -3616 -3616 -3616 -3616 803 803 803 803 803 803 803 803 803 803 803 
-1 811 811 811 811 811 811 811 811 811 811 811 811 811 811 811 811 910 910 910 910 910 910 910 910 910 910 910 910 910 910 910 -3616 -3616 -3616 -3616 -3616 -3616 -3616 -3616 -3616 -3616 -3616 803 803 803 803 803 803 803 803 803 803 803 803 
-1 811 811 811 811 811 811 811 811 811 811 811 811 811 811 811 811 910 910 910 910 910 910 910 910 910 910 910 910 910 910 910 -3616 -3616 -3616 -3616 -3616 -3616 803 803 803 803 803 803 803 803 803 803 
-1 811 811 811 811 811 811 811 811 811 811 811 -3323 910 910 910 910 910 910 910 910 910 910 910 910 910 910 910 -3616 -3616 -3616 -3616 -3616 -3616 -3616 -3616 803 803 803 803 803 803 803 803 803 803 803 
-1 811 811 811 811 811 811 811 811 811 811 811 811 910 910 910 910 910 910 910 -3616 -3616 -3616 -3616 -3616 -3616 -3616 -3616 -3616 803 803 803 803 803 803 803 803 803 803 803 
-1 811 811 811 811 811 811 811 811 811 811 811 811 811 811 910 910 910 910 910 910 910 910 910 910 910 -3616 -3616 -3616 -3616 -3616 -3616 -3616 803 803 803 803 803 803 803 803 803 803 803 803 803 803 803 803 -3480 
-1 811 811 811 811 811 811 811 811 811 910 910 910 910 910 910 910 910 910 910 910 910 910 910 910 -3616 -3616 -3616 -3616 -3616 -3616 -3616 -3616 -3616 833 803 803 803 803 803 803 803 803 803 803 803 803 
-1 811 811 811 811 811 811 811 811 811 811 811 811 811 910 910 910 910 910 910 910 910 910 910 910 910 910 910 910 910 910 -3616 -3616 -3616 -3616 -3616 -3616 -3616 833 833 803 803 803 803 803 803 803 803 803 803 803 803 803 
-1 811 811 811 811 811 811 811 811 811 811 811 811 811 811 811 811 811 811 910 910 910 910 910 910 910 910 910 910 910 910 910 910 910 910 910 910 910 910 910 910 910 910 -3616 -3616 -3616 -3616 -3616 -3616 -3616 -3616 803 803 803 803 803 803 803 803 -3480 
-1 811 811 811 811 811 811 811 811 811 811 811 811 811 910 910 910 910 910 910 910 910 910 910 910 910 910 910 910 910 -3616 -3616 -3616 -3616 -3616 -3616 -3616 -3616 -3616 -3616 -3616 -3616 803 803 803 803 803 803 803 803 803 803 803 803 803 803 
-1 811 811 811 811 811 811 811 811 811 811 811 910 910 910 910 910 910 910 910 910 910 910 910 910 -3616 -3616 -3616 -3616 -3616 -3616 -3616 -3616 -3616 -3616 -3616 -3616 -3616 803 803 803 803 803 803 803 803 803 803 
-1 811 811 811 811 811 811 811 811 811 811 811 811 910 910 910 910 910 910 910 910 910 910 910 -3616 -3616 -3616 -3616 -3616 -3616 803 803 803 803 803 803 803 803 803 803 
-1 811 811 811 811 811 811 811 811 811 811 910 910 910 910 910 910 910 910 910 910 910 910 910 910 910 910 -3616 -3616 -3616 -3616 -3616 -3616 -3616 -3616 803 803 803 803 803 803 803 803 803 803 803 803 803 803 
-1 811 811 811 811 811 811 811 811 811 811 811 811 811 811 811 811 811 811 811 811 -3323 910 910 910 910 910 910 910 910 910 910 910 910 910 910 -3616 -3616 -3616 -3616 803 803 803 803 803 803 803 803 803 803 803 
-1 811 811 811 811 811 811 811 811 811 910 910 910 910 910 910 910 910 910 910 910 910 -3616 -3616 -3616 -3616 -3616 -3616 -3616 -3616 803 803 803 803 803 803 803 
-1 811 811 811 811 811 811 811 811 811 910 910 910 910 910 910 910 910 910 910 -3616 -3616 -3616 -3616 -3616 -3616 803 803 803 803 803 803 803 803 
-1 811 811 811 811 811 811 811 811 811 811 811 811 910 910 910 910 -3616 -3616 -3616 -3616 -3616 -3616 -3616 -3616 -3616 -3616 803 803 803 803 803 803 803 803 
-1 811 811 811 811 811 811 811 811 811 910 910 910 910 910 910 910 910 910 910 910 910 910 910 910 910 910 910 -3616 -3616 -3616 -3616 -3616 -3616 -3616 -3616 -3616 -3616 -3616 -3616 -3616 803 803 803 803 803 803 803 803 803 
-1 811 811 811 811 811 811 811 811 910 910 910 910 910 910 910 910 910 910 910 910 -3616 -3616 -3616 -3616 -3616 -3616 803 803 803 803 803 803 803 803 803 803 803 803 
-1 811 811 811 811 811 811 811 811 811 811 811 -3323 910 910 910 910 910 910 910 910 910 910 910 910 -3616 -3616 -3616 -3616 -3616 -3616 -3616 -3616 833 803 803 803 803 803 803 803 803 
-1 811 811 811 811 811 811 811 811 910 910 910 910 910 910 910 910 910 910 910 910 -3616 -3616 -3616 -3616 -3616 -3616 803 803 803 803 803 803 803 803 803 803 803 
-1 811 811 811 910 910 910 910 910 910 910 910 910 910 -3616 -3616 -3616 -3616 -3616 -3616 -3616 -3616 -3616 -3616 803 803 803 803 803 803 803 803 803 
-1 811 811 811 811 811 811 811 811 811 811 811 811 811 811 811 811 910 910 910 910 910 910 910 910 910 910 910 910 -3616 -3616 -3616 -3616 -3616 803 803 803 803 803 803 803 803 
-1 811 811 811 910 910 910 910 910 910 910 910 910 910 910 910 910 910 910 -3616 -3616 -3616 -3616 -3616 -3616 -3616 -3616 -3616 -3616 -3616 803 803 803 803 803 803 803 803 803 803 803 803 
-1 811 811 811 811 811 811 811 811 811 910 910 910 910 910 910 910 910 910 910 910 910 910 910 910 -3616 -3616 -3616 -3616 -3616 -3616 -3616 -3616 -3616 -3616 -3616 -3616 -3616 -3616 803 803 803 803 803 803 803 803 803 803 803 
-1 811 811 811 811 811 811 811 811 811 811 811 811 811 811 811 811 811 910 910 910 910 910 910 910 910 910 910 910 910 -3616 -3616 -3616 -3616 -3616 803 803 803 803 803 803 803 803 803 803 803 803 803 
-1 811 811 811 811 811 811 811 811 811 811 811 811 811 811 811 -3323 910 910 910 910 910 910 910 910 910 910 910 -3616 -3616 -3616 -3616 -3616 -3616 -3616 -3616 -3616 -3616 -3616 803 803 803 803 803 803 803 803 
-1 811 811 811 811 811 811 811 811 811 811 811 811 910 910 910 910 910 910 910 910 910 910 910 910 910 910 910 910 -3616 -3616 -3616 -3616 -3616 -3616 833 803 803 803 803 
-1 811 811 811 811 811 811 811 811 811 811 811 811 910 910 910 910 910 910 910 910 910 910 910 910 910 -3616 -3616 -3616 -3616 -3616 -3616 -3616 833 803 803 803 803 803 803 803 
-1 811 811 811 811 811 811 811 811 811 811 910 910 910 910 910 910 910 910 910 910 910 910 910 -3616 -3616 -3616 -3616 -3616 -3616 -3616 -3616 -3616 -3616 803 803 803 803 803 803 803 803 
-1 811 811 811 811 811 811 811 811 811 811 910 910 910 910 910 910 910 910 910 910 910 910 -3616 -3616 -3616 -3616 -3616 -3616 -3616 803 803 803 803 803 803 803 803 803 803 803 803 803 
-1 811 811 811 811 811 811 811 811 811 910 910 910 910 910 910 910 910 910 -3616 -3616 -3616 -3616 -3616 -3616 -3616 -3616 803 803 803 803 803 803 803 803 803 803 803 803 803 803 803 
-1 811 811 811 811 811 811 811 910 910 910 910 910 910 910 -3616 -3616 -3616 -3616 -3616 -3616 -3616 803 803 803 803 803 803 803 803 803 
-1 811 811 811 811 811 811 811 811 811 811 910 910 910 910 910 910 910 910 910 910 910 910 910 -3616 -3616 -3616 -3616 -3616 -3616 -3616 -3616 -3616 -3616 833 833 803 803 803 803 803 803 803 803 803 803 803 
-1 811 811 811 811 811 811 811 811 811 811 811 811 910 910 910 910 910 910 910 910 910 910 910 -3616 -3616 -3616 -3616 -3616 -3616 -3616 803 803 803 803 803 803 803 803 803 803 803 803 803 
-1 811 811 811 811 811 811 811 811 -3323 910 910 910 910 910 910 910 910 910 910 910 910 910 -3616 -3616 -3616 -3616 -3616 -3616 -3616 -3616 803 803 803 803 803 803 803 803 803 803 803 
-1 811 811 811 811 811 811 811 811 811 811 811 910 910 910 910 910 910 910 910 910 910 910 910 910 910 910 910 910 910 910 -3616 -3616 -3616 -3616 -3616 -3616 803 803 803 803 803 803 803 803 
-1 811 811 811 811 811 811 910 910 910 910 910 910 910 910 910 910 910 910 910 910 -3616 -3616 -3616 -3616 -3616 -3616 -3616 -3616 -3616 803 803 803 803 803 803 803 803 803 803 803 803 803 803 803 803 803 803 
-1 811 811 811 811 811 811 811 811 811 811 811 910 910 910 910 910 910 910 910 910 910 910 910 -3616 -3616 -3616 -3616 -3616 -3616 -3616 -3616 -3616 -3616 -3616 -3616 833 803 803 803 803 803 803 803 803 803 803 803 
-1 811 811 811 811 811 811 811 811 811 910 910 910 910 910 910 910 910 910 910 910 910 -3616 -3616 -3616 -3616 -3616 -3616 -3616 -3616 -3616 -3616 -3616 803 803 803 803 803 803 803 803 803 
-1 811 811 811 811 811 811 811 811 811 811 811 910 910 910 910 910 910 910 910 910 910 910 910 -3616 -3616 -3616 -3616 -3616 -3616 -3616 -3616 803 803 803 803 803 803 803 803 803 803 803 803 803 
-1 811 811 811 811 811 811 811 811 811 811 811 811 811 811 811 910 910 910 910 910 910 910 910 -3616 -3616 -3616 -3616 -3616 -3616 -3616 -3616 -3616 -3616 -3616 -3616 803 803 803 803 803 803 803 803 803 
-1 811 811 811 811 811 811 811 811 811 811 811 811 910 910 910 910 910 910 910 910 910 910 910 910 910 910 910 -3616 -3616 -3616 -3616 803 803 803 803 803 803 803 803 803 
-1 834 834 834 834 834 834 834 834 834 834 834 834 834 834 -3936 -3936 898 898 898 898 898 898 898 898 898 761 761 -3451 -3451 -3451 -3451 858 858 
-1 834 834 834 834 834 834 834 834 834 834 834 834 834 834 834 834 834 -3936 -3936 -3936 898 898 898 898 898 898 898 898 898 898 -3528 761 761 761 -3451 -3451 -3451 -3451 858 858 
-1 834 834 834 834 834 834 834 834 834 834 834 834 834 834 834 834 834 834 -3936 -3936 -3936 898 898 898 898 898 898 -3528 761 761 761 761 761 -3451 -3451 -3451 -3451 858 858 
-1 834 834 834 834 834 834 834 834 834 834 834 834 -3936 898 898 898 898 898 898 898 898 898 898 898 761 761 761 -3451 -3451 -3451 
-1 834 834 834 834 834 834 834 834 834 834 834 834 834 834 834 834 834 -3936 -3936 -3936 -3936 898 898 898 898 898 898 898 898 898 761 761 761 761 -3451 -3451 -3451 -3451 -3451 -3451 
-1 834 834 834 834 834 834 834 834 834 834 834 834 834 834 834 834 -3936 -3936 -3936 898 898 898 898 898 898 898 761 761 761 -3451 -3451 858 
-1 834 834 834 834 834 834 834 834 834 834 834 834 834 834 834 834 834 -3936 -3936 -3936 898 898 898 898 761 761 761 761 -3451 -3451 -3451 -3451 858 
-1 834 834 834 834 834 834 834 834 834 834 834 -3936 -3936 -3936 -3936 898 898 898 898 898 898 898 898 898 898 898 761 761 761 -3451 -3451 -3451 -3451 858 858 858 
-1 834 834 834 834 834 834 834 834 834 834 834 834 834 -3936 -3936 -3936 898 898 898 898 898 898 761 761 858 858 858 
-1 834 834 834 834 834 834 834 834 834 834 834 834 834 834 834 834 834 834 834 834 834 834 834 834 834 834 -3936 -3936 898 898 898 898 898 898 898 -3528 761 761 -3451 -3451 -3451 -3451 -3451 858 
-1 834 834 834 834 834 834 834 834 834 834 834 834 834 -3936 -3936 -3936 -3936 -3936 898 898 898 898 898 898 898 898 898 761 -3451 -3451 858 858 
-1 834 834 834 834 834 834 834 898 898 898 898 898 898 761 761 761 761 761 -3451 -3451 -3451 -3451 -3451 -3451 858 858 858 
-1 834 834 834 834 834 834 834 834 834 834 834 834 834 834 834 834 834 -3936 -3936 -3936 -3936 -3936 898 898 898 898 898 898 898 898 898 898 761 761 761 761 761 761 761 -3451 -3451 858 858 858 858 
-1 834 834 834 834 834 834 834 834 834 834 834 834 834 834 834 834 -3936 -3936 -3936 -3936 898 898 898 898 898 761 761 -3451 -3451 -3451 -3451 858 858 
-1 834 834 834 834 834 834 834 834 834 834 834 834 -3936 898 898 898 898 898 898 898 898 898 761 -3451 -3451 -3451 -3451 
-1 834 834 834 834 834 834 834 834 834 834 834 834 834 834 834 -3936 -3936 -3936 898 898 898 898 898 898 898 898 898 898 898 761 761 761 -3451 
-1 834 834 834 834 834 834 834 834 834 834 834 834 834 834 834 834 834 -3936 -3936 -3936 -3936 -3936 898 898 898 898 898 898 761 761 -3451 -3451 -3451 -3451 858 858 858 
-1 834 834 834 834 834 834 834 834 834 834 834 -3936 -3936 -3936 -3936 -3936 -3936 -3936 898 898 898 898 898 898 898 898 761 761 -3451 -3451 -3451 -3451 858 858 
-1 834 834 834 834 834 834 834 834 834 834 834 -3936 -3936 898 898 898 898 761 -3451 -3451 858 
-1 834 834 834 834 834 834 834 834 834 834 834 834 834 834 834 834 834 834 834 -3936 -3936 -3936 -3936 -3936 -3936 898 898 898 898 898 898 898 898 898 898 761 -3451 -3451 -3451 -3451 858 
-1 834 834 834 834 834 834 834 834 834 834 834 834 834 834 834 834 834 834 -3936 -3936 -3936 -3936 898 898 898 898 898 898 898 898 898 898 898 898 761 761 -3451 -3451 -3451 858 
-1 834 834 834 834 834 834 834 834 834 834 834 834 834 834 834 -3936 898 898 898 898 898 898 898 898 -3451 -3451 -3451 -3451 -3451 -3451 
-1 834 834 834 834 834 834 834 834 834 834 834 834 834 834 834 834 834 834 -3936 -3936 -3936 -3936 -3936 898 898 898 898 898 898 898 898 898 898 898 -3528 761 761 761 761 -3451 858 858 858 858 
-1 834 834 834 834 834 834 834 834 834 834 834 834 834 834 834 834 -3936 -3936 -3936 898 898 898 898 898 898 898 898 898 898 -3528 -3528 761 761 761 -3451 -3451 -3451 858 858 858 858 
-1 834 834 834 834 834 834 834 834 834 834 834 834 834 834 -3936 -3936 -3936 -3936 -3936 898 898 898 898 898 898 898 898 898 898 898 898 761 761 761 761 761 -3451 858 858 
-1 834 834 834 834 834 834 834 834 834 834 834 834 834 -3936 -3936 -3936 898 898 761 761 -3451 -3451 858 858 858 -4275 -4275 
-1 834 834 834 834 834 834 834 834 834 834 834 834 834 834 834 834 834 -3936 -3936 -3936 898 898 898 898 898 898 898 898 898 898 898 898 761 761 -3451 -3451 -3451 858 
-1 834 834 834 834 834 834 834 834 834 834 834 834 -3936 -3936 -3936 -3936 898 898 898 898 898 898 898 898 761 761 761 761 -3451 -3451 -3451 -3451 -3451 858 
-1 834 834 834 834 834 834 834 834 834 834 834 834 -3936 -3936 -3936 -3936 -3936 898 898 898 898 898 898 761 -3451 -3451 -3451 -3451 -3451 858 858 858 
-1 834 834 834 834 834 834 834 834 834 834 834 834 834 834 834 834 -3936 -3936 -3936 -3936 898 898 898 898 898 898 898 898 898 898 898 -3528 -3451 -3451 -3451 858 
-1 834 834 834 834 834 834 834 834 834 834 834 834 834 834 834 834 834 834 834 -3936 -3936 -3936 -3936 -3936 898 898 898 898 898 898 898 898 898 898 761 761 -3451 -3451 -3451 -3451 858 
-1 834 834 834 834 834 834 834 834 834 834 834 834 834 834 834 834 834 834 834 834 834 834 -3936 -3936 898 898 898 898 898 898 898 898 898 -3528 761 761 761 761 761 -3451 858 858 858 858 858 858 858 858 858 
-1 834 834 834 834 834 834 834 834 834 834 834 834 834 834 -3936 -3936 898 898 898 898 898 761 761 -3451 -3451 -3451 858 858 
-1 834 834 834 834 834 834 834 834 834 834 834 834 834 834 834 834 834 -3936 -3936 -3936 -3936 898 898 898 898 898 898 898 898 898 898 898 898 898 -3528 -3528 761 761 761 761 761 -3451 858 
-1 834 834 834 834 834 834 834 834 834 834 834 834 834 834 834 834 834 -3936 -3936 -3936 898 898 898 898 898 898 898 898 898 898 898 898 898 761 761 761 -3451 -3451 -3451 -3451 858 
-1 834 834 834 834 834 834 834 834 834 834 834 834 834 -3936 -3936 -3936 -3936 898 898 898 898 898 898 -3528 -3528 761 -3451 -3451 -3451 858 858 858 858 858 
-1 834 834 834 834 834 834 834 834 834 834 834 834 834 834 834 834 834 -3936 -3936 898 898 898 898 898 898 898 898 898 898 898 898 898 761 761 761 -3451 -3451 -3451 -3451 858 858 858 
-1 834 834 834 834 834 834 834 834 834 834 834 834 834 834 834 834 -3936 898 898 898 898 898 898 898 898 761 -3451 -3451 -3451 
-1 834 834 834 834 834 834 834 834 834 834 834 834 834 834 834 834 834 834 834 834 834 834 834 834 834 -3936 -3936 -3936 -3936 -3936 898 898 898 898 898 761 761 -3451 858 
-1 834 834 834 834 834 834 834 834 834 834 834 834 834 -3936 898 898 898 898 898 898 898 898 761 761 761 -3451 858 858 
-1 834 834 834 834 834 834 834 834 834 834 834 834 834 834 834 834 834 834 834 -3936 -3936 -3936 -3936 -3936 898 898 898 898 898 898 898 761 761 761 -3451 -3451 -3451 -3451 
-1 834 834 834 834 834 834 834 834 834 834 834 834 834 834 834 834 -3936 -3936 -3936 -3936 -3936 -3936 898 898 898 898 898 898 898 898 898 -3528 -3528 761 761 761 761 761 -3451 -3451 -3451 -3451 -3451 
-1 834 834 834 834 834 834 834 834 834 834 834 834 834 834 834 834 834 834 834 -3936 -3936 -3936 898 898 898 898 898 898 898 898 898 761 761 761 761 -3451 -3451 -3451 -3451 -3451 858 858 858 858 
-1 834 834 834 834 834 834 834 834 834 834 834 834 834 834 -3936 -3936 898 898 898 898 898 898 898 898 898 898 898 898 761 761 761 761 -3451 -3451 -3451 
-1 834 834 834 834 834 834 834 834 834 834 834 834 834 834 834 -3936 -3936 -3936 -3936 898 898 898 898 898 898 898 898 898 898 898 761 761 -3451 -3451 -3451 858 -4275 
-1 834 834 834 834 834 834 834 834 834 834 834 834 834 834 834 834 -3936 -3936 898 898 898 898 898 898 898 761 761 -3451 -3451 -3451 858 858 858 
-1 834 834 834 834 834 834 834 834 834 -3936 -3936 -3936 898 898 898 898 898 898 898 898 898 898 898 898 898 898 761 761 761 761 761 761 761 761 -3451 -3451 858 858 858 858 
-1 834 834 834 834 834 834 834 834 834 834 834 834 834 834 834 834 834 -3936 -3936 -3936 -3936 -3936 -3936 -3936 -3936 -3936 898 898 898 898 898 898 761 761 761 -3451 -3451 858 858 858 858 858 858 
-1 771 771 771 771 -3612 -3612 -3612 885 885 1065 1065 -3399 -3399 
-1 771 771 771 771 771 771 771 771 771 771 771 -3612 885 885 885 -3401 1065 1065 1065 1065 -3399 -3399 829 829 829 
-1 771 771 771 771 -3612 -3612 -3612 885 885 885 885 885 1065 -3399 -3399 -3399 829 
-1 771 771 771 771 771 771 771 771 771 771 -3612 -3612 -3612 885 885 885 885 -3399 829 
-1 771 771 771 771 771 771 771 771 771 -3612 -3612 885 885 885 885 1065 -3399 -3399 829 
-1 771 771 771 771 771 771 771 771 885 885 -3401 1065 1065 1065 1065 1065 1065 -3399 -3399 
-1 771 771 771 771 771 771 771 -3612 -3612 885 885 885 885 1065 1065 1065 1065 -3399 -3399 -3399 -3399 
-1 771 771 771 771 771 -3612 -3612 885 885 885 885 1065 1065 -3399 -3399 -3399 -3399 
-1 771 771 771 771 771 771 771 771 -3612 885 885 885 -3401 1065 1065 -3399 -3399 -3399 829 
-1 771 771 771 771 771 771 771 771 771 771 771 771 771 771 -3612 -3612 885 -3399 -3399 829 829 
-1 911 911 -3076 906 906 906 906 906 906 906 761 733 733 733 733 733 733 -3731 -3731 -3731 -3731 -3731 -3731 -3731 
-1 911 911 911 911 906 906 906 906 906 -3223 761 761 733 733 733 -3731 -3731 -3731 -3731 -3731 
-1 911 911 911 906 906 906 -3223 -3223 761 761 761 733 733 733 733 -3731 -3731 -3731 -3731 -3731 
-1 911 911 906 906 906 -3223 -3223 761 761 761 733 733 733 733 733 733 -3731 -3731 -3731 -3731 -3731 
-1 911 911 911 906 906 906 761 761 733 733 733 733 733 733 -3731 -3731 -3731 -3731 -3731 -3731 -3731 -3731 -3731 -3731 
-1 911 911 911 911 906 906 906 906 -3223 -3223 -3223 761 -3444 733 -3731 -3731 -3731 -3731 -3731 -3731 -3731 
-1 911 911 911 911 906 906 906 906 761 761 733 733 733 733 733 733 733 733 -3731 -3731 -3731 -3731 -3731 -3731 
-1 911 911 911 911 906 906 761 761 733 733 733 -3731 -3731 -3731 -3731 -3731 -3731 -3731 
-1 911 906 906 906 906 906 906 -3223 733 733 733 733 -3731 -3731 -3731 -3731 -3731 -3731 -3731 -3731 -3731 
-1 911 906 906 906 906 906 -3223 761 733 733 733 733 733 -3731 -3731 
-1 911 906 906 -3223 -3223 761 761 733 733 733 -3731 -3731 -3731 -3731 -3731 -3731 -3731 -3731 -3731 
-1 911 911 911 911 911 -3076 906 761 761 761 733 733 733 733 733 -3731 -3731 -3731 -3731 -3731 -3731 
-1 911 911 -3076 906 906 906 906 906 906 906 761 733 733 733 -3731 -3731 -3731 -3731 -3731 -3731 -3731 
-1 911 911 911 911 911 906 906 761 761 733 733 733 -3731 -3731 -3731 -3731 -3731 
-1 911 911 911 911 906 906 906 906 906 761 733 733 733 733 -3731 -3731 -3731 -3731 -3731 -3731 
-1 911 911 906 906 906 906 906 -3223 -3223 761 761 733 733 733 733 733 733 733 733 -3731 -3731 -3731 -3731 -3731 -3731 
-1 911 911 906 906 -3223 761 761 733 733 733 733 733 -3731 -3731 -3731 -3731 -3731 -3731 -3731 -3731 
-1 911 911 911 906 906 906 906 906 906 906 906 761 761 733 -3731 -3731 -3731 -3731 -3731 -3731 
-1 911 911 911 911 911 906 906 906 906 761 733 733 733 -3731 -3731 -3731 -3731 -3731 -3731 -3731 -3731 -3731 -3731 
-1 911 911 911 906 906 906 761 733 733 733 733 -3731 -3731 -3731 -3731 -3731 -3731 
-1 911 911 906 906 906 906 906 906 906 -3223 761 761 733 733 733 -3731 -3731 -3731 -3731 -3731 
-1 911 -3076 906 906 906 906 906 -3444 733 733 733 -3731 -3731 -3731 -3731 -3731 -3731 -3731 -3731 
-1 911 911 906 906 906 906 761 -3444 733 733 733 733 733 733 733 -3731 -3731 -3731 -3731 -3731 
-1 911 911 911 906 906 906 -3223 -3223 761 761 733 733 733 733 -3731 -3731 -3731 -3731 
-1 911 911 911 -3076 906 906 906 906 906 906 906 906 906 906 -3223 -3223 761 733 733 733 -3731 -3731 -3731 -3731 -3731 -3731 -3731 -3731 -3731 
-1 911 911 911 906 906 906 906 906 906 761 761 761 733 733 -3731 -3731 -3731 -3731 
-1 911 906 906 906 906 906 906 -3223 761 761 761 761 733 733 733 733 733 733 733 733 -3731 -3731 -3731 -3731 -3731 -3731 -3731 -3731 -3731 -3731 -3731 
-1 911 911 911 911 906 906 906 906 761 761 761 733 733 733 733 733 733 733 -3731 -3731 -3731 -3731 -3731 -3731 -3731 -3731 -3731 
-1 911 911 911 911 906 906 906 906 906 761 761 733 733 733 733 733 -3731 -3731 -3731 -3731 -3731 
-1 911 911 906 906 761 761 733 733 733 733 -3731 -3731 -3731 -3731 -3731 -3731 -3731 -3731 -3731 -3731 -3731 -3731 
-1 911 -3076 906 906 906 906 906 906 906 761 733 733 733 733 733 -3731 -3731 -3731 -3731 -3731 -3731 
-1 911 911 911 906 906 906 906 906 906 -3223 761 761 733 733 733 733 -3731 -3731 -3731 -3731 
-1 911 911 911 911 911 -3076 -3076 906 906 906 906 906 906 906 906 761 733 733 733 733 733 733 -3731 -3731 -3731 -3731 -3731 
-1 911 -3076 906 906 906 906 761 -3444 733 733 733 -3731 -3731 -3731 -3731 -3731 
-1 911 911 911 911 911 911 -3076 -3076 906 906 906 906 -3223 761 761 -3444 733 733 -3731 -3731 -3731 -3731 -3731 -3731 -3731 -3731 -3731 
-1 911 911 906 906 906 906 761 733 733 733 733 733 733 -3731 -3731 -3731 -3731 
-1 911 -3076 -3076 906 906 906 -3223 761 761 761 -3444 733 733 733 733 -3731 -3731 -3731 -3731 -3731 -3731 
-1 911 906 906 906 906 -3223 -3223 761 761 733 733 733 -3731 -3731 -3731 -3731 -3731 
-1 911 911 911 911 911 911 906 906 -3223 -3223 -3223 761 733 733 733 733 733 733 -3731 -3731 -3731 -3731 -3731 -3731 -3731 -3731 -3731 
-1 911 911 906 906 906 761 761 761 733 733 733 733 733 733 -3731 -3731 -3731 -3731 -3731 -3731 -3731 
-1 911 911 911 906 906 906 906 -3223 -3223 761 761 761 733 733 733 733 733 733 733 733 733 -3731 -3731 -3731 -3731 -3731 -3731 -3731 -3731 
-1 911 911 -3076 -3076 906 906 906 906 -3223 761 761 761 761 761 733 733 733 733 -3731 -3731 -3731 -3731 -3731 
-1 911 911 906 -3223 -3223 761 761 733 733 -3731 -3731 -3731 -3731 -3731 -3731 -3731 -3731 -3731 -3731 
-1 911 911 911 911 906 906 906 906 906 906 906 -3223 -3223 761 761 733 733 733 733 -3731 -3731 -3731 -3731 -3731 -3731 -3731 
-1 906 906 906 761 761 733 733 733 -3731 -3731 -3731 -3731 -3731 -3731 -3731 
-1 911 911 911 911 911 906 906 906 906 -3223 733 733 733 733 -3731 -3731 -3731 -3731 
-1 911 911 911 911 -3076 906 906 906 761 761 733 733 733 733 733 733 733 733 -3731 -3731 -3731 -3731 
-1 911 906 906 906 906 761 761 733 733 733 733 733 -3731 -3731 -3731 -3731 -3731 -3731 -3731 
-1 911 911 911 906 906 761 761 733 733 733 733 733 733 -3731 -3731 -3731 -3731 -3731 -3731 -3731 -3731 -3731 
